time,x_bias=-4.471635,y_bias=-9.585345000000002,z_bias=-0.47704125000000003
1615999887.0926487,-0.29658911305879543,-0.9272879262044217,-0.04080408343093254
1615999887.674213,-0.6615161817484886,-1.6643160908056334,-0.08033364049894648
1615999888.0431988,-0.9908429924737368,-2.343065122257669,-0.11731334897487711
1615999888.2074037,-1.1312638117317315,-2.6254051600483796,-0.13164771092000455
1615999888.4751966,-1.2308322240094873,-2.8311849538897826,-0.1415928647579695
1615999889.049759,-1.4578286605666937,-3.2949682339987887,-0.16734429893862868
1615999890.2688897,-1.8373009171633432,-4.057261634855557,-0.20439179858458956
1615999890.58702,-1.8916292539117927,-4.1651493783219316,-0.20972890179275624
1615999890.7484465,-1.9424544567589481,-4.273708530693325,-0.2149554216470804
1615999890.9093328,-2.0186736119387505,-4.428110293623202,-0.22234668066874044
1615999891.2273815,-2.231523991572902,-4.862799790527357,-0.24090311954519375
1615999891.336854,-2.3221704315492038,-5.0460363432594155,-0.24958887044416614
1615999891.3945203,-2.387716232561761,-5.175308757828268,-0.25501507390310396
1615999891.5585778,-2.4508190627384443,-5.303482484912012,-0.2618480436931079
1615999891.6688733,-2.5126801695060497,-5.42681682412764,-0.2683689024473789
1615999892.0972102,-2.6327246705871765,-5.66306897326411,-0.2809831343557944
1615999892.2107446,-2.6719118246424918,-5.737026275696154,-0.2847094449821141
1615999892.2741702,-2.690517706396067,-5.7767810129391925,-0.28728735053229293
1615999892.3324175,-2.7441080937483977,-5.881553097573886,-0.29225994768413327
1615999892.7588408,-2.844450880634435,-6.085958182753251,-0.3052052381592762
1615999892.817288,-2.8611563718280904,-6.119336100925719,-0.30556568577768345
1615999893.2442248,-2.9416021922011235,-6.278708794207471,-0.31352537885744686
1615999893.5131743,-3.020314674228796,-6.433055881673932,-0.3233923834434348
1615999894.267839,-3.189005528136948,-6.812741793758387,-0.34038001980624427
1615999894.3238451,-3.201390472855578,-6.8369268758208035,-0.34248871960818184
1615999894.381889,-3.229360052445752,-6.8896060309919696,-0.34603406908797907
1615999894.798829,-3.294020041252452,-7.011883737576394,-0.35067808805045225
1615999895.1169121,-3.366623625405109,-7.1521740528815405,-0.35484401599909554
1615999895.3297575,-3.399406968356952,-7.224902087586907,-0.3564292138799064
1615999895.38738,-3.4235121446866486,-7.269689911043927,-0.3580398975236963
1615999895.9138017,-3.534423420352907,-7.488452452447561,-0.3695766993784951
1615999896.4988906,-3.627231480211726,-7.6835416142888455,-0.3758420952254854
1615999896.6640296,-3.6575628632252783,-7.749295454492324,-0.38119452940114135
1615999896.7231295,-3.6743537372470954,-7.782630224947926,-0.3844088832660586
1615999897.1968915,-3.7336846236562216,-7.897413286574314,-0.39421732431907447
1615999897.3587327,-3.7700893270783182,-7.973002491378356,-0.39998012012526607
1615999897.9350507,-3.810787475277125,-8.068425836108462,-0.41067746675505046
1615999898.0978293,-3.8297456889739196,-8.112784909100204,-0.4126877565649587
1615999898.5778599,-3.872524719147533,-8.211378759222894,-0.4180176248525588
1615999898.737879,-3.8864378522364973,-8.23724882191436,-0.4188410741179929
1615999898.8461158,-3.9073686865872213,-8.273434084654681,-0.4202537078756144
1615999899.0609598,-3.929669096447125,-8.326307459142289,-0.4227680598730208
1615999899.1683755,-3.9413259314278273,-8.353715065705357,-0.42411035048154766
1615999899.3277416,-3.9531637953924137,-8.374306135897822,-0.4262860545069649
1615999899.538964,-3.9657645200054636,-8.408144593105519,-0.42644593115205354
1615999899.6471908,-3.9749670560573547,-8.428377015702718,-0.4285016571221277
1615999900.7157886,-4.033727243151394,-8.542830675019864,-0.4379757942222481
1615999901.1467602,-4.064016262051218,-8.596053563574262,-0.44167222404376
1615999901.3654435,-4.082357418802034,-8.628372001682543,-0.44380496481743625
1615999902.0094147,-4.1156362492415095,-8.700717531449817,-0.44166550297897156
1615999902.1742826,-4.135572786765807,-8.73562463351664,-0.44293771139020577
1615999902.3962555,-4.1468456281760755,-8.76073448877656,-0.4448439446742053
1615999902.5080643,-4.158372617423618,-8.780547278725408,-0.44686596217343677
1615999902.6170702,-4.162813891249382,-8.787679305938154,-0.4476473025517024
1615999902.9370084,-4.193955660745425,-8.842382055478486,-0.4554500854356221
1615999903.200883,-4.197633693096591,-8.856279652574466,-0.4567536287354532
1615999903.6785207,-4.215945360838259,-8.894426249178013,-0.46141522396826384
1615999904.4671395,-4.240674925646649,-8.947290359465388,-0.46526635127313043
1615999904.5239787,-4.243943176390183,-8.950479955870733,-0.46603868776039914
1615999904.6346676,-4.245953744626282,-8.959850156312026,-0.46566580088279513
1615999904.7437246,-4.253224890108219,-8.970211388201417,-0.4671974264452275
1615999904.8563387,-4.262858004883144,-8.993220895275341,-0.46489781303805405
1615999904.916227,-4.26883200558597,-9.004030174459363,-0.4660150965585968
1615999905.5470464,-4.297361091977586,-9.089528879512411,-0.4674346113769878
1615999905.604429,-4.302476981247232,-9.098114504810114,-0.46700166261058573
1615999905.7667007,-4.304284189320413,-9.107476026164393,-0.4662439545246351
1615999906.401656,-4.321815435546522,-9.134075573492305,-0.4685134542638419
1615999906.5663118,-4.327475335295355,-9.14492979863401,-0.4703039224087515
1615999906.6761749,-4.328946076122977,-9.152922195641194,-0.4683421243528174
1615999906.8896973,-4.334037214966049,-9.163617538508456,-0.4702077161674144
1615999907.2096908,-4.3451898029037705,-9.187823050960173,-0.47011065195228946
1615999907.2674165,-4.346909150825986,-9.196631372246067,-0.4696358249784389
1615999907.4286356,-4.353227084637303,-9.203380435108986,-0.4710990625907543
1615999907.589825,-4.35486269574649,-9.214377456555813,-0.47336512308274625
1615999908.0121207,-4.362473537600614,-9.241277162159975,-0.4763878964813655
1615999908.2246077,-4.364834189202362,-9.24533799663299,-0.4759631523413863
1615999909.024011,-4.373698617144793,-9.276232531795335,-0.4776538427163996
1615999909.1353214,-4.379312725766976,-9.289994936868482,-0.47941702718387985
1615999909.2460768,-4.379298652524213,-9.2924711626248,-0.47936337834292064
1615999909.3564212,-4.380480665998971,-9.294746450998552,-0.47850724455949145
1615999910.1471426,-4.378743530591978,-9.330900540711797,-0.48384508830956535
1615999910.4713547,-4.388685082137468,-9.338769261889594,-0.4854893399632661
1615999910.580109,-4.3875857313160935,-9.338744069270698,-0.48623444656363346
1615999910.6371918,-4.389209874002932,-9.339769128577991,-0.48758460209799714
1615999910.7985842,-4.393580817919819,-9.350698374545695,-0.4913917642252737
1615999911.0690382,-4.398857203968815,-9.35665483305208,-0.4914148854866586
1615999911.2294672,-4.403428570609836,-9.361357901874344,-0.4933843542654741
1615999911.8592849,-4.421674802737248,-9.384260335027376,-0.4960521823804625
1615999912.1273568,-4.427741802285119,-9.399927347735339,-0.49621988411909745
1615999912.3438163,-4.426501877936007,-9.40126545509923,-0.4990642382150552
1615999912.840087,-4.435071573903524,-9.412446552870573,-0.4952792832494875
1615999913.2666938,-4.440916420956029,-9.421802234476955,-0.49784772501484675
1615999913.3252482,-4.4396447567464685,-9.419896712132186,-0.4989942477646983
1615999913.383826,-4.442105951087213,-9.420868517560756,-0.4983795122341808
1615999913.5481617,-4.445376575686632,-9.419212103340978,-0.49701161924290027
1615999913.6589775,-4.44873704211352,-9.420439505030297,-0.4939986038008105
1615999913.9857295,-4.452317128528437,-9.431329092922718,-0.49080843455795564
1615999914.3035007,-4.454089517670721,-9.429943643973557,-0.4886118467102523
1615999914.8423352,-4.463062538375733,-9.428021066259738,-0.4918469217296224
1615999914.901182,-4.465062968862056,-9.43229094704117,-0.49223979298720294
1615999915.0652754,-4.4652353723738845,-9.436662531123101,-0.49174107139569
1615999915.1759424,-4.468332688463644,-9.441549696753752,-0.4910055490749158
1615999916.3447015,-4.473597981777074,-9.454559797325414,-0.49606698925484144
1615999916.5186431,-4.47329138193971,-9.457692557358637,-0.49734625616867006
1615999916.6227918,-4.475342008439109,-9.457028475467201,-0.49988981567091356
1615999916.9991698,-4.480394961979495,-9.460994575402676,-0.5026900326981151
1615999917.1616037,-4.483328612463742,-9.463948523018642,-0.5036046960369485
1615999917.5337744,-4.479124644899241,-9.460114502596529,-0.503586100559302
1615999917.6453924,-4.4822858738210885,-9.46123629050491,-0.5052685797865901
1615999917.8593948,-4.488405386296901,-9.458065063838719,-0.5023695036588651
1615999918.4434376,-4.4893769128688215,-9.455297424225478,-0.5010140284633138
1615999918.553578,-4.489992687302732,-9.45791150548339,-0.5018308492968938
1615999918.6049826,-4.489455260429705,-9.458182390428556,-0.5029375408039248
1615999919.316393,-4.4912461542800015,-9.473431950692605,-0.5053521562813255
1615999919.658156,-4.496426298138617,-9.476677351207007,-0.5078965415740787
1615999920.668534,-4.497157013405657,-9.481106016077174,-0.5098425677037401
1615999920.7262845,-4.497802336700495,-9.477502693793666,-0.5113375698503713
1615999920.892952,-4.50059931333349,-9.47862766685573,-0.5115616941518676
1615999920.949977,-4.501055636998153,-9.475187976285302,-0.5107038664382454
1615999921.446621,-4.503408578858675,-9.477818115079687,-0.5112674450478549
1615999921.8712304,-4.503026284370173,-9.47687865839057,-0.5144421428375369
1615999922.08639,-4.498990547078614,-9.475091112879134,-0.5138931267730881
1615999922.1431446,-4.502334337589832,-9.476432712985511,-0.5130145670148006
1615999922.199178,-4.5014984942139336,-9.474593385855657,-0.5135719213446527
1615999922.7371888,-4.499851200413423,-9.468895422870249,-0.512700203638147
1615999923.0565295,-4.495364891828043,-9.482911128564247,-0.5099822019848456
1615999923.1646852,-4.496892255480665,-9.48408057210582,-0.5103746811653471
1615999923.3252609,-4.497887584850633,-9.485487772533704,-0.5103855152600552
1615999923.5388262,-4.4974335716707055,-9.488465902906738,-0.5134198781415806
1615999923.6471517,-4.496560768594459,-9.485949556438893,-0.5141761975665632
1615999924.2206275,-4.50004210968437,-9.494141276601471,-0.5122567712444123
1615999924.4343317,-4.50593890319839,-9.501194955962765,-0.5087905538930267
1615999924.868347,-4.50633171604115,-9.502396863154958,-0.5104037767953314
1615999924.9245977,-4.505280898880739,-9.50397289452341,-0.5096747390273781
1615999925.0395467,-4.504118780903082,-9.50706157808317,-0.507886309603526
1615999925.2015784,-4.504927593094051,-9.507190962302339,-0.5084949465074907
1615999925.6213348,-4.503889976936029,-9.512669507693811,-0.5057353121573839
1615999925.6818602,-4.505838577166669,-9.513792812616874,-0.50444045903581
1615999925.734483,-4.509670514481052,-9.516883460645797,-0.5055504689009974
1615999925.8451433,-4.51215730303045,-9.516489341231157,-0.5052792931741689
1615999926.0720887,-4.514383872700145,-9.510709828340659,-0.504620860240003
1615999926.9699357,-4.5075548770220975,-9.511914353583546,-0.5090515774743855
1615999927.4551659,-4.504295249309243,-9.512938720427178,-0.5098360554871421
1615999927.6648195,-4.505066563096829,-9.510978824038789,-0.5057245744587473
1615999927.7771204,-4.504824988491203,-9.511065595440417,-0.5052366554270182
1615999928.09926,-4.503533194430445,-9.51373327252834,-0.5054653228464386
1615999928.587328,-4.505747904247035,-9.511997318127735,-0.5076197889740279
1615999929.016236,-4.5071276611542395,-9.523504060050579,-0.5079218817812586
1615999929.4415586,-4.504514944990298,-9.529208463463016,-0.5102439214704734
1615999929.763096,-4.502359582725918,-9.523082152878498,-0.511399577852111
1615999929.980314,-4.499875433402139,-9.52283518140547,-0.5110428762210429
1615999930.1949658,-4.501312162277436,-9.522425261295503,-0.5111517479842442
1615999930.251755,-4.500049040654662,-9.521526008682548,-0.5120777305044018
1615999930.3090322,-4.4991962965981775,-9.524257882198667,-0.5143717385806905
1615999930.8608713,-4.495067380013236,-9.519702727953474,-0.5120689425666187
1615999931.0256317,-4.497470179796868,-9.517236294483224,-0.5129197628244131
1615999931.084028,-4.494670477998899,-9.517263931538391,-0.511728065196169
1615999931.35091,-4.493985270131854,-9.514599961757769,-0.5121048861817775
1615999931.6690836,-4.493121348674931,-9.509197444473166,-0.5119233309927196
1615999932.160004,-4.486010214952927,-9.514750597504493,-0.5120020457651312
1615999932.5240245,-4.485409265366045,-9.507880524156858,-0.509501719495322
1615999933.4343674,-4.47853177991329,-9.501988610848704,-0.5114719649221369
1615999933.545643,-4.479246462114157,-9.499893724740216,-0.5124822452729155
1615999933.8156374,-4.478448714192905,-9.500158217471707,-0.5125328138560646
1615999934.1339827,-4.479782496677651,-9.498598896284562,-0.5163552281652414
1615999934.882477,-4.480483200817224,-9.499682910969332,-0.513330750049605
1615999934.9945226,-4.482403368809051,-9.500236081859638,-0.512834942549109
1615999935.3780918,-4.48471529950311,-9.501601698871188,-0.5132240671242524
1615999935.9690785,-4.484456331646905,-9.495810787316035,-0.5131597704600465
1615999936.1946228,-4.48900891664066,-9.495640659871963,-0.5127544746176126
1615999936.254747,-4.489352889199512,-9.49766016074051,-0.5133464105727221
1615999936.3648143,-4.4860167667044415,-9.496870973541773,-0.512617567002325
1615999936.5870142,-4.482767005222984,-9.49659065222362,-0.5137418014185148
1615999936.9217231,-4.4824942442643465,-9.497111687016808,-0.5122908523878378
1615999937.6405418,-4.484457239877414,-9.495345900792236,-0.5095644666469983
1615999937.6995125,-4.488373415803853,-9.49286764236647,-0.508911758760723
1615999937.7591772,-4.489031175936252,-9.488438521190337,-0.5122060140451331
1615999937.8172967,-4.490778364176889,-9.489279135978434,-0.5114589539046818
1615999938.1959102,-4.487203803169796,-9.484936943937033,-0.5134089373989902
1615999938.4652474,-4.488453250398664,-9.48208844708003,-0.5096556213166716
1615999939.0509615,-4.492315668654576,-9.479107264223318,-0.5068175129957072
1615999939.1093898,-4.49271751196803,-9.481266191581085,-0.5073493378657501
1615999939.3270457,-4.491232990584297,-9.475133226231884,-0.5097450890634535
1615999939.4415073,-4.4874245790716705,-9.474285700029869,-0.5102245367910908
1615999939.497763,-4.487000333280954,-9.47833034302957,-0.5110722914231799
1615999939.6526039,-4.487297422632177,-9.48219605351125,-0.5107912257956201
1615999939.9423711,-4.484865300085496,-9.485682005839745,-0.5075688162082791
1615999940.4569068,-4.484320161724268,-9.490401431147061,-0.5102130401928996
1615999940.8306842,-4.481182804778237,-9.485304857688826,-0.5092513402979262
1615999941.0037982,-4.480942200425583,-9.487416735379504,-0.5101733191898402
1615999941.116942,-4.481020278421328,-9.485817568025709,-0.5111965859979418
1615999941.5378435,-4.481243139581794,-9.475988403371904,-0.5083565622038537
1615999941.749971,-4.482230982093076,-9.478407025553356,-0.5066089551998371
1615999941.8670943,-4.4841501996939295,-9.482486355987394,-0.5068226176214466
1615999942.303408,-4.484293568553275,-9.486711956269895,-0.5084887591203932
1615999942.4133117,-4.486000632867742,-9.485819836707195,-0.5097913715291892
1615999942.9882345,-4.477946075549694,-9.488853658903142,-0.5082266615619454
1615999943.593365,-4.477688452462186,-9.49573033468999,-0.5115150418031679
1615999943.7570004,-4.478849067937563,-9.493873031343089,-0.5119998913851362
1615999943.8146951,-4.479560577258188,-9.495184301029658,-0.5109923924712849
1615999943.872358,-4.474626282303043,-9.497232172104777,-0.5099357461724954
1615999944.1460116,-4.475262490983937,-9.500996577404981,-0.5093807245046718
1615999944.36522,-4.473545953819597,-9.50158821737033,-0.5094248656559541
1615999945.0342007,-4.472003792484313,-9.503866630167431,-0.5040182364109277
1615999945.2698216,-4.471059357352799,-9.49947762007348,-0.5042438587635739
1615999945.5874836,-4.469931844992301,-9.500067793712613,-0.5052958629848397
1615999946.0097852,-4.468248242962883,-9.501538209086943,-0.5048751979168496
1615999946.3296545,-4.473458171308986,-9.495145908331308,-0.5067618116034948
1615999947.2396815,-4.471811536341524,-9.499061367794162,-0.5082576663337212
1615999947.3551397,-4.4707559209781085,-9.500670754116221,-0.5085125896703839
1615999947.8139174,-4.4698207469879465,-9.499724982077733,-0.5075950211096381
1615999948.3118894,-4.476644344551335,-9.49123256264268,-0.5071163773955789
1615999949.593206,-4.482005572866938,-9.507949668945129,-0.49959928718916147
1615999949.9243302,-4.4847335379264015,-9.514869585552946,-0.4991823277599528
1615999949.9850068,-4.486202090521666,-9.514871055800441,-0.4989147244375297
1615999950.1515167,-4.491895493481082,-9.516774965572111,-0.49751426820701067
1615999950.367828,-4.487294793431481,-9.516374106658185,-0.4974416195840593
1615999950.6879528,-4.486113627042195,-9.515570386935687,-0.49554790635433654
1615999951.129117,-4.4859393991960195,-9.521583006616492,-0.49687332989460226
1615999951.2901537,-4.485880005204059,-9.522004676550328,-0.4967170965956562
1615999951.9235666,-4.485387776189546,-9.519171573904243,-0.4985124383577511
1615999952.196468,-4.478876746197951,-9.513678839735338,-0.5017157242343266
1615999952.2558498,-4.476191848948611,-9.511003755824605,-0.5029718313220636
1615999952.6867197,-4.469185483296686,-9.5072101528612,-0.5070015181864961
1615999952.744168,-4.469906128463719,-9.508213051332588,-0.5073565030046311
1615999952.8999045,-4.470887496507291,-9.506459611611069,-0.508669233594839
1615999953.280839,-4.464796913173755,-9.505841046890607,-0.5117031641842124
1615999953.338411,-4.464829954601598,-9.504999310057483,-0.5131813962169466
1615999953.5552778,-4.467898591892839,-9.504027072538408,-0.5139415252541059
1615999953.7841492,-4.469751090054061,-9.499433750564501,-0.5139387064763342
1615999954.1269767,-4.470149135428365,-9.501433939988983,-0.5151300054552806
1615999954.8622212,-4.468633658642817,-9.503887705083233,-0.5129907129739851
1615999955.147714,-4.468128654268992,-9.50094316076601,-0.5109517842998653
1615999955.9194076,-4.468201469950401,-9.499894068640879,-0.5119463628239447
1615999956.0294726,-4.465669510698389,-9.506269551674926,-0.5101192552037482
1615999956.1381743,-4.46665293743549,-9.508980537596596,-0.5106848820251936
1615999956.4071512,-4.467285455530312,-9.509748919720446,-0.5065094574407216
1615999957.0188355,-4.469241650711619,-9.510486997675557,-0.507457177918697
1615999957.1899242,-4.468242991862457,-9.510309681421813,-0.505449905078115
1615999957.672732,-4.464147445198879,-9.507291667171721,-0.507894162833915
1615999958.109485,-4.47146890003709,-9.500452782492822,-0.5101130924021419
1615999958.172231,-4.471223392237088,-9.504433700650003,-0.510048500944706
1615999958.3811154,-4.469951277101612,-9.507070716941428,-0.5103083707139657
1615999958.4382951,-4.4697207466872895,-9.502734259674293,-0.5114731091367578
1615999958.4962983,-4.468352928828213,-9.504214472906774,-0.5120887942649364
1615999958.7149749,-4.472649489977514,-9.496180364943548,-0.5148376418743902
1615999958.8257124,-4.472722265126961,-9.495766250681172,-0.5140852478010899
1615999959.1003091,-4.474526484880426,-9.490390627269692,-0.5164928631061497
1615999960.3495307,-4.470976188342658,-9.50379946228197,-0.515697977449219
1615999960.4004152,-4.472903926459232,-9.50448646765915,-0.5155284976747267
1615999960.6742103,-4.475770374923357,-9.503997905520482,-0.5154677955648558
1615999960.7809658,-4.473849919462382,-9.505006722200624,-0.5133124864331151
1615999961.648631,-4.473055290531241,-9.521865109166953,-0.5146450391509575
1615999961.8131008,-4.473609822847173,-9.523995446059587,-0.5147584380931349
1615999961.8737867,-4.4733603499987895,-9.52778203356617,-0.5155648902233307
1615999961.9315946,-4.472639246498802,-9.52499171323051,-0.5150467413210974
1615999962.044511,-4.474611850493475,-9.529753878137223,-0.5161994361688076
1615999962.4169855,-4.474099144692182,-9.52773625250339,-0.5159439470518951
1615999962.4764986,-4.473093946712807,-9.529153801078571,-0.5151625375055624
1615999962.5868456,-4.47322021715149,-9.528882816532738,-0.5150916824791096
1615999962.6449974,-4.469697434731874,-9.531276642998899,-0.5153920681677977
1615999963.067364,-4.464641515856066,-9.532603950099977,-0.5157495070193331
1615999963.2911775,-4.46738314969053,-9.536536506492988,-0.5158487168296484
1615999963.4465756,-4.469368475011689,-9.536130430013777,-0.5151523273647384
1615999963.8162882,-4.474839457654451,-9.528614513775487,-0.5158299019594855
1615999964.494906,-4.481459923764604,-9.533103324568438,-0.5186293446637028
1615999964.5515049,-4.484332824526957,-9.534372291322754,-0.5175555512170658
1615999964.607948,-4.483851996281688,-9.531953568409527,-0.5170174957048951
1615999964.76862,-4.482575921783725,-9.529187692781953,-0.5141329332243144
1615999965.468155,-4.47978554465014,-9.526849157739662,-0.5144562500556262
1615999965.5255556,-4.479857591688487,-9.529425737155636,-0.5140649999727241
1615999966.0493395,-4.481425757629077,-9.5206388862798,-0.5127945704582342
1615999966.4177284,-4.479482087544696,-9.515268181771233,-0.5158002659429003
1615999966.5829806,-4.476920273849405,-9.5163164658894,-0.5138212283341889
1615999966.9018512,-4.479999542353492,-9.517409916491227,-0.5130684160625846
1615999967.1175706,-4.476518884696051,-9.52430342706152,-0.5129896535371098
1615999967.1733482,-4.474070783890599,-9.525228413862996,-0.5134027844317213
1615999967.80907,-4.472015030396889,-9.531214079359847,-0.512559287700903
1615999968.1317863,-4.46994215433428,-9.532751727001392,-0.5120255766664293
1615999968.2421365,-4.470042732790938,-9.532099209731378,-0.5124178208997651
1615999968.4051661,-4.473342549834315,-9.534679019853145,-0.5126996404512212
1615999969.0375123,-4.481284672012952,-9.538985105051891,-0.5153393819293225
1615999969.2068722,-4.479435607039894,-9.540438676461358,-0.515518503228929
1615999969.3080423,-4.481198588459801,-9.543068196799778,-0.5169383100146733
1615999969.414994,-4.485036602575203,-9.54397501483178,-0.5171064269145266
1615999971.0596685,-4.474888974365359,-9.541012950388735,-0.5186488142878541
1615999972.0160797,-4.481172835836052,-9.540426351315965,-0.5148213735106683
1615999972.2282689,-4.484662754919252,-9.53985557190237,-0.513075729726247
1615999972.2867181,-4.484791127370059,-9.542457016183347,-0.5131074724289846
1615999972.556321,-4.48395668359604,-9.542978436595686,-0.5126844186403713
1615999972.7208705,-4.490724981800189,-9.539751444159853,-0.5115522654976102
1615999972.8862958,-4.489024054662365,-9.54311039042107,-0.5097242504142079
1615999972.943826,-4.488321314115741,-9.54287928651686,-0.5094395079100658
1615999973.00111,-4.486405719964838,-9.543739113715173,-0.5102689117026555
1615999973.2772584,-4.480829101470534,-9.544075489341255,-0.511160997546052
1615999973.962104,-4.485914060139229,-9.547789665638557,-0.5071334046641427
1615999974.1837487,-4.488367071108535,-9.53983800004984,-0.5063669829577238
1615999974.350052,-4.4938230999957725,-9.533498930596814,-0.5080401994743032
1615999974.4003625,-4.491286145305857,-9.535568301877937,-0.5088038245047646
1615999974.61771,-4.488277995867846,-9.542938822811259,-0.5067716401497219
1615999974.9512072,-4.4834327329168175,-9.54701299629659,-0.5078162372165629
1615999975.0081782,-4.483353046531773,-9.549778562670289,-0.5071143190959533
1615999975.4475915,-4.476839069372432,-9.54749164922507,-0.5104191861609543
1615999975.8294241,-4.468816070941137,-9.543028750110972,-0.5107163017961567
1615999975.8817904,-4.4670029102317255,-9.543498462609863,-0.5102466387781951
1615999976.0401194,-4.4648141773181145,-9.542130468203927,-0.511587605666509
1615999976.0969381,-4.464878535544933,-9.542959163521887,-0.5118967296098439
1615999976.6175187,-4.467070159763314,-9.545418456669195,-0.5096110453260566
1615999976.8868344,-4.466566169908703,-9.547711487181786,-0.5102928470921392
1615999977.696988,-4.464616736499207,-9.540205420281548,-0.5104095970955248
1615999978.862106,-4.46777337253428,-9.544545585776172,-0.5093022638225376
1615999978.9712102,-4.468018432420848,-9.542465503619226,-0.5089198987724691
1615999979.1269462,-4.466043970709517,-9.541350378196231,-0.5096521101090281
1615999979.4072695,-4.4636214456923975,-9.543365880670127,-0.5105604081178584
1615999979.4658558,-4.463347731235474,-9.545407221863426,-0.5088673040366798
1615999979.8378081,-4.4615787274573995,-9.53949061056678,-0.5069679229101661
1615999979.8943155,-4.460887940182825,-9.542708204461112,-0.5073232436810645
1615999980.2683005,-4.462536899821742,-9.539371329262108,-0.5069334407977882
1615999980.5347164,-4.461506483845819,-9.535519555403924,-0.511283021750956
1615999980.7477746,-4.4618348385714235,-9.530349380797984,-0.5149317090872116
1615999980.9093323,-4.461682989531013,-9.535675436338902,-0.5149682473956123
1615999981.2847037,-4.469510671426681,-9.53604822541407,-0.5092234236086054
1615999981.459651,-4.47015428406529,-9.53572711572833,-0.5077173774787942
1615999981.5130284,-4.469056088812391,-9.530897396125336,-0.5082345516669662
1615999981.7264082,-4.467966622645025,-9.532442787942442,-0.5090923090887935
1615999982.7170317,-4.465431722829701,-9.536388777972077,-0.5066346573782212
1615999983.6254742,-4.4693994319414765,-9.53411311917264,-0.5063231623492488
1615999983.9939365,-4.467596755956749,-9.534589447690891,-0.5078136247357705
1615999984.1029768,-4.469733288397181,-9.534793553213982,-0.5079854884884129
1615999984.6303508,-4.473732516214164,-9.523581706971722,-0.511736201424321
1615999985.257675,-4.476803313004853,-9.52115567945793,-0.5130772594888536
1615999985.4242322,-4.473736952352243,-9.522380641601128,-0.5114377980117274
1615999986.009871,-4.473666359172909,-9.520261655055624,-0.5096411732424054
1615999986.4847941,-4.48585341691577,-9.524824885879722,-0.5107948499292958
1615999986.6976953,-4.488650093329954,-9.521578613194208,-0.5082662045915457
1615999986.8588946,-4.490308629238881,-9.522291703198189,-0.5074554955734826
1615999986.9158258,-4.491168042946493,-9.521043786166207,-0.5072809406177478
1615999987.180555,-4.49197466340294,-9.520024174673283,-0.50842148190046
1615999987.237291,-4.4915049167689105,-9.52098643292655,-0.5077122670814554
1615999987.8769076,-4.4915739695966055,-9.524136861442187,-0.5110400610718518
1615999988.297475,-4.492782038966246,-9.52442501905903,-0.5067343236932761
1615999988.7684581,-4.490331869756658,-9.519975913278214,-0.5064651526711201
1615999989.2940977,-4.486520785836109,-9.509323028512487,-0.5085391605263027
1615999989.57094,-4.4857028327979185,-9.507478133035184,-0.5080643050155126
1615999989.627773,-4.485208304469939,-9.506640851704832,-0.5074461619653574
1615999990.258897,-4.4829795750557775,-9.502384381430298,-0.504349657378918
1615999991.466971,-4.487290488795648,-9.517181111873356,-0.5090985235068243
1615999991.8416207,-4.490553072560549,-9.51452169362541,-0.5100482678275465
1615999992.4794364,-4.494366621225378,-9.507998101582364,-0.50690402124066
1615999992.9065115,-4.497741533010391,-9.490111700457083,-0.5067792919060345
1615999993.8231947,-4.2719297459000325,-9.465984815732112,-0.5119005283280056
1615999993.8834898,-4.254935448441032,-9.46617496757479,-0.5116815230447256
1615999993.996042,-4.251178015686886,-9.468213636112852,-0.5102431126287742
1615999994.1598985,-4.241008823174717,-9.467643809754206,-0.5111378996874616
1615999994.2716827,-4.24582074759354,-9.467987447940097,-0.5111530054836811
1615999994.7991915,-4.251437516096312,-9.482709963306503,-0.5109022288777109
1615999994.859118,-4.268745711680735,-9.485569264686337,-0.510264874277814
1615999994.9177847,-4.272665297018288,-9.48451931131908,-0.5091668532796856
1615999995.0328856,-4.28533496532542,-9.495536553613968,-0.5099782391702492
1615999995.4593751,-4.302837320500145,-9.513027628794505,-0.5092090707356152
1615999995.6805534,-4.301934482822192,-9.516995378981495,-0.5103064352279765
1615999995.7378109,-4.308434611614031,-9.520971670939764,-0.5128528371669397
1615999995.8478997,-4.314600033449837,-9.52739613917777,-0.5142963736497421
1615999995.9573405,-4.318578367784186,-9.526648706008132,-0.5137341258141123
1615999996.3286605,-4.323346693857312,-9.532797907113084,-0.5091369622825824
1615999996.5456474,-4.33051567975024,-9.535918680515964,-0.5067903196384225
1615999996.8630779,-4.329230042723211,-9.538993398773696,-0.5059329422776179
1615999997.8174047,-4.352805836472696,-9.537967314191837,-0.5028064890046903
1615999997.8752835,-4.3549826253268895,-9.53734463963942,-0.5028858898734969
1615999997.9901314,-4.366125672744251,-9.538330074766565,-0.5022203711128026
1615999998.1523113,-4.3678588968566405,-9.53772555627871,-0.5037184357276577
1615999998.6606562,-4.36842175595099,-9.540178778286359,-0.5026736563984294
1615999998.7687457,-4.36997503839148,-9.540764490503495,-0.5048219198344451
1615999998.9934952,-4.372859527565952,-9.54280254826484,-0.5035491300785079
1615999999.1562219,-4.376303247967389,-9.54556352755437,-0.5029295023899456
1615999999.2096853,-4.376727715487715,-9.544170392278826,-0.5038502073660461
1615999999.482343,-4.384852597909803,-9.547123771163733,-0.5075897769595512
1615999999.5376635,-4.385016571930705,-9.546852533452096,-0.5072388791899557
1615999999.871259,-4.387726736818013,-9.550832064542476,-0.5075254591792435
1616000000.7986248,-4.401196006557253,-9.54844234071958,-0.5042813679708422
1616000001.1728752,-4.405360206404563,-9.549731803187935,-0.5040275750026064
1616000001.3354611,-4.4047481632971115,-9.548630890304496,-0.5046138012600545
1616000001.4475281,-4.4061564248475,-9.546560510587437,-0.5033701116149795
1616000001.5057082,-4.408938411993034,-9.543917081426747,-0.5030952963938414
1616000002.0875475,-4.4139013910946305,-9.552073414324122,-0.5028988981762555
1616000003.4211493,-4.425075038910194,-9.545676703237545,-0.5098451062648405
1616000003.747003,-4.423424931429522,-9.543859678224687,-0.5109925967636685
1616000003.7983255,-4.424253182115226,-9.54353358144244,-0.5113951707960318
1616000004.018094,-4.4259437999571904,-9.538858963709616,-0.5131336622374366
1616000004.4215786,-4.432677423617894,-9.542011771415492,-0.5115812186016938
1616000004.739741,-4.433803168344429,-9.548417083794753,-0.5104302948297249
1616000005.180234,-4.432648484157629,-9.549187825859638,-0.5115982237639494
1616000005.3975391,-4.432552154322892,-9.552093863125032,-0.5118710441110468
1616000005.621009,-4.437854998259474,-9.548688924825893,-0.5121284501201055
1616000005.6813087,-4.439676448276879,-9.550152035577634,-0.5124321656189045
1616000005.7985642,-4.442256606836607,-9.551663658718944,-0.5128053728678574
1616000006.0911994,-4.4442167924108835,-9.55158969347742,-0.5109702821334262
1616000006.2030563,-4.445012124486775,-9.555473796542644,-0.5096230793120919
1616000006.3159003,-4.447169619377393,-9.555309145561532,-0.5092057254834434
1616000006.909976,-4.455202173086502,-9.548063085933936,-0.5104786312659558
1616000007.2789898,-4.45224137344857,-9.542466636359766,-0.5113430300704545
1616000007.4550316,-4.449293916396075,-9.539546217958108,-0.5131388434358437
1616000007.8949292,-4.447016498326309,-9.546700992565567,-0.5102708398035488
1616000008.2216496,-4.447335637836983,-9.549204200965475,-0.5076424425831284
1616000008.4486635,-4.455345949252854,-9.55235974809864,-0.5094342525876949
1616000008.5647905,-4.4571948129640955,-9.550359909970362,-0.5084974896015878
1616000009.0031238,-4.458305475868972,-9.550959930333269,-0.5098752896144872
1616000009.174993,-4.459942707249327,-9.542538545374535,-0.5129219102718832
1616000010.0228472,-4.455290994310094,-9.557348666742774,-0.5065144781741535
1616000010.0752227,-4.453963084366992,-9.558987680075345,-0.506174333392412
1616000011.0851338,-4.459997229506241,-9.550817495560146,-0.5093157372680331
1616000012.073305,-4.4609874813269474,-9.55060922691995,-0.5080404001811207
1616000012.1309345,-4.462227606513678,-9.54881563465075,-0.5087349961793095
1616000012.18878,-4.464169402144056,-9.548427703521199,-0.5084426697553412
1616000012.299382,-4.4645127204809745,-9.546919089798916,-0.5071222177709379
1616000012.3575578,-4.464698063169969,-9.550221137162797,-0.5047962345309233
1616000012.4674718,-4.462651717245758,-9.549547232917925,-0.5016774340691204
1616000012.8376563,-4.455153043048611,-9.538173941726345,-0.4994198182737995
1616000013.2612858,-4.455718127328994,-9.546853099356193,-0.4959308265374563
1616000013.3193738,-4.454534281979195,-9.544757052952216,-0.4967049513084673
1616000013.8093297,-4.453496518089929,-9.549115390572759,-0.496905987761658
1616000013.9843714,-4.450701562379939,-9.54949324430036,-0.49798305860520103
1616000014.5573258,-4.453803133855806,-9.5517740776146,-0.5000355544864703
1616000014.6669338,-4.456421826492075,-9.547641773470069,-0.49817947195218953
1616000014.7803292,-4.459647476823434,-9.550433992656234,-0.49792517595573754
1616000014.8311307,-4.463005617034648,-9.548610356202376,-0.49776658995421835
1616000014.9889047,-4.463422858453103,-9.549107470012808,-0.4976312807159881
1616000015.3624682,-4.459098917425736,-9.548173788827743,-0.5002995680961899
1616000015.8420656,-4.462115592622917,-9.549235619479836,-0.5001126928672606
1616000016.2865682,-4.457558468172911,-9.552898712812361,-0.5000032545133345
1616000016.571671,-4.462929089332677,-9.559145820778495,-0.4955768823667079
1616000016.9252014,-4.462407892600594,-9.563302955227645,-0.49687974251761996
1616000017.4304433,-4.46192415640171,-9.56220881320351,-0.4950201358862538
1616000017.5321996,-4.4648003656893165,-9.56318798282076,-0.4943129851821174
1616000017.803437,-4.462405213412099,-9.562073041962627,-0.49526840677699324
1616000018.0201275,-4.4642237936685465,-9.565262331793296,-0.4957383423273098
1616000018.1848323,-4.465694055731861,-9.564984708475363,-0.4960309589040367
1616000018.2440822,-4.468851369022796,-9.567930762776703,-0.4968541928218464
1616000018.3561075,-4.468373226779243,-9.566701315597447,-0.4975857943846917
1616000018.4678676,-4.469204849566337,-9.565760584417058,-0.4974392120764363
1616000018.7519767,-4.468498253312523,-9.565262866375935,-0.4987006431811601
1616000018.919977,-4.470586305440888,-9.562181665231705,-0.4993976291280365
1616000019.210338,-4.468933936582988,-9.561979658842658,-0.5006656588953047
1616000019.7663565,-4.467268288685564,-9.56038064579501,-0.5021904079904531
1616000019.8239026,-4.466258105798708,-9.56050183933706,-0.5019810039105486
1616000019.8819635,-4.467183024740721,-9.56079682094369,-0.5018611938714431
1616000020.3562965,-4.474038932618562,-9.55270331255233,-0.49897955258464954
1616000020.8305135,-4.4739839235308585,-9.560558501466213,-0.49804160339333287
1616000020.8875046,-4.472892643452594,-9.559660387287035,-0.49631357548580557
1616000021.0492818,-4.473903018746414,-9.552558484232982,-0.4959842430954987
1616000022.2043118,-4.477505003335167,-9.539330913538747,-0.49597512773807134
1616000022.629222,-4.480064509186759,-9.536902430784055,-0.4952891350732466
1616000022.8454304,-4.4809846015674095,-9.537125503382965,-0.49308997498521173
1616000023.423702,-4.47771413286791,-9.534200923615533,-0.493064364958115
1616000024.011882,-4.480850439627808,-9.526981724718553,-0.4934417288528472
1616000024.1747825,-4.4808478257204225,-9.526145366762687,-0.4939258348141888
1616000024.5445318,-4.482515353252058,-9.533017055444159,-0.49574882456753705
1616000025.0814338,-4.483241691612411,-9.528657957735184,-0.49431950043693684
1616000025.1326628,-4.483734274696287,-9.527783878157832,-0.49462630543256747
1616000025.917842,-4.481257056751948,-9.540352766052807,-0.4971820446094708
1616000026.3474407,-4.486384595724637,-9.540417948460037,-0.4990985524299197
1616000026.563633,-4.492705018459118,-9.538819587093183,-0.49960546763766983
1616000026.7269511,-4.491708221288805,-9.54213896509656,-0.5013848381619298
1616000027.0004487,-4.492952776306182,-9.544366684146178,-0.5042471566347825
1616000027.2828853,-4.493609466599009,-9.540535445495449,-0.5029624101597949
1616000027.394574,-4.4945233719330195,-9.544617591040494,-0.5023077860581969
1616000027.8366923,-4.500708475522047,-9.546060713172729,-0.4989270015349319
1616000028.0061147,-4.499976390766826,-9.550000106041,-0.4978752315195826
1616000028.064522,-4.499426626859158,-9.55285010498059,-0.49735897920438676
1616000028.2343297,-4.499212023711166,-9.550034389372435,-0.4964633492614069
1616000028.4463618,-4.498832329439314,-9.548300955023924,-0.49920822861110487
1616000028.5577257,-4.499694006144921,-9.549505445473685,-0.5010411463249939
1616000028.6700888,-4.4983422204226375,-9.54980378710876,-0.5022205525131265
1616000029.152385,-4.500103114852526,-9.554143332754565,-0.5025177032591047
1616000029.3175967,-4.496097036103408,-9.557748984724638,-0.5011599640300599
1616000029.586533,-4.4944893830341,-9.554034048379332,-0.4999561356884031
1616000029.6442473,-4.493119489203759,-9.55281870789554,-0.500119074331519
1616000029.8620899,-4.488547508098376,-9.55395285999051,-0.5028840377989277
1616000029.975979,-4.486712033017392,-9.555275831390604,-0.5017051974209383
1616000030.143768,-4.485831464460494,-9.560316285558248,-0.5044103092763157
1616000030.2567525,-4.486385649815889,-9.560525622702665,-0.5036537061835525
1616000031.3366172,-4.490965357978105,-9.553944507099215,-0.5076680006506531
1616000031.3951578,-4.488580704398324,-9.552467562028223,-0.5073163206441466
1616000032.0260358,-4.497437783829196,-9.548690262099297,-0.5105899724366052
1616000032.081838,-4.496040771930995,-9.548883200883521,-0.5109598569851167
1616000032.5064263,-4.498639052813551,-9.547478910240384,-0.510265672920725
1616000032.7266617,-4.500711536325376,-9.555916551273562,-0.5077241854476134
1616000032.8322928,-4.5007333767525015,-9.561637436903217,-0.5082394741572059
1616000032.9966571,-4.499292283479575,-9.562060760889755,-0.5071640460352628
1616000033.106063,-4.502338414617949,-9.563147825480568,-0.5072597567039694
1616000033.5827045,-4.494146615254203,-9.555699067212485,-0.505172669929998
1616000033.845556,-4.492194722610644,-9.550814030774957,-0.504333483798391
1616000034.558257,-4.493618508172007,-9.551931298272983,-0.5074104703917404
1616000034.609129,-4.4904844998593845,-9.55069474043735,-0.5075006270309447
1616000034.9267685,-4.490836758474077,-9.543593840306682,-0.5086308531350644
1616000034.984353,-4.487921387160639,-9.544726230905733,-0.5087661844160998
1616000035.2497134,-4.486216962790581,-9.5446103396216,-0.5114849587227572
1616000035.359381,-4.486456652778738,-9.549077054174498,-0.5118768052137327
1616000035.469302,-4.485725841759711,-9.550953906510076,-0.5097455159623588
1616000035.7413795,-4.484282504532417,-9.54312226839181,-0.5129952898648634
1616000036.5442426,-4.484547258314712,-9.549216093306072,-0.5125706833776336
1616000036.6038952,-4.484203017874249,-9.55139881804928,-0.5125590267784187
1616000036.7161958,-4.484082611540366,-9.5466088042544,-0.5134605361240729
1616000037.3689294,-4.484155613787285,-9.553162608374869,-0.5139139830117961
1616000037.5390005,-4.483037792072919,-9.55408204746821,-0.5125744697498614
1616000037.7085686,-4.4850483560569545,-9.555872593198094,-0.5116969863570826
1616000037.9272106,-4.484982432333707,-9.560599798807518,-0.5090784154152909
1616000038.0371416,-4.486523906930267,-9.560854987811247,-0.5085246299485267
1616000038.4792356,-4.489448342605885,-9.566392351416635,-0.5034717382697459
1616000038.9015899,-4.489819286661277,-9.562141085411417,-0.5024788892831901
1616000039.160211,-4.491308027047741,-9.558813585451368,-0.5014683837914925
1616000039.3269699,-4.493361794438032,-9.555735694643376,-0.5026382513237564
1616000039.596637,-4.492543324298613,-9.555453715976505,-0.5022451926324776
1616000039.6547298,-4.495480391055627,-9.55632417881674,-0.5017727407061529
1616000039.7665741,-4.495206011710883,-9.554451663131703,-0.4996213222844394
1616000039.9838197,-4.498542506707059,-9.556204885535028,-0.49785851564126926
1616000040.0442653,-4.496344581639988,-9.555142836679677,-0.49847993048485656
1616000040.2622163,-4.497318635823588,-9.55347890831288,-0.499095131180008
1616000040.4843674,-4.493151119970698,-9.554476053037453,-0.5014350130695259
1616000040.589075,-4.4921446087709915,-9.554131292507078,-0.5011456629388306
1616000040.9086323,-4.4885076680342655,-9.547451971822458,-0.5031794452497421
1616000041.1780064,-4.49259581841812,-9.543342432511784,-0.5049844106584158
1616000041.4965606,-4.490720030010328,-9.54002628157165,-0.5039306873462296
1616000042.0770278,-4.491724959437669,-9.532192975309709,-0.5037337908839377
1616000042.464831,-4.488690530191609,-9.529835534446148,-0.5043886959174604
1616000042.9923081,-4.491768300661396,-9.521900241655183,-0.5086042889637052
1616000043.2630405,-4.496524293802378,-9.52416700301979,-0.5092396996581922
1616000043.6367223,-4.489612253119062,-9.522524446600473,-0.5101406261287551
1616000043.7409432,-4.486297439589173,-9.51836394426199,-0.5103316443921049
1616000044.058799,-4.48661624083762,-9.520272618445428,-0.5119109919395421
1616000044.2163618,-4.487619452644951,-9.519421943338365,-0.5119080881999453
1616000044.3234677,-4.4876307581185015,-9.51776522390498,-0.5116890073179459
1616000044.7504346,-4.483580219606604,-9.522422655976747,-0.5114160915539366
1616000044.9151907,-4.481597973236433,-9.52369744512281,-0.5101919113320132
1616000045.2329767,-4.48266261856267,-9.522250652179236,-0.5092049328778272
1616000045.4466302,-4.488847935807778,-9.516299869073116,-0.511318485477311
1616000045.9713135,-4.49025628279633,-9.529503837262547,-0.5080163325694811
1616000046.1889958,-4.490569307768683,-9.535486960901023,-0.5065351825513484
1616000046.6283288,-4.494684923686353,-9.538361875088961,-0.5093657864935337
1616000047.2585325,-4.502063346166311,-9.546925468298578,-0.5122441046336067
1616000047.9470541,-4.505753716911755,-9.550369637917857,-0.5102759284857946
1616000048.8597565,-4.493598735884957,-9.554884643570674,-0.5054221290490849
1616000048.9199088,-4.494103371040847,-9.557733314163617,-0.5068538536810082
1616000049.085052,-4.494281271817562,-9.559195719499645,-0.5060172423728285
1616000049.2466972,-4.495735886263309,-9.563885649934784,-0.5032944005071133
1616000049.5160317,-4.497592985941265,-9.5678853562775,-0.5047330784766503
1616000049.8370366,-4.497480208286665,-9.575580709202596,-0.5061761557246872
1616000050.2587066,-4.497864906646172,-9.576603846755305,-0.5093349019119354
1616000050.4320207,-4.500098531053875,-9.572845283402826,-0.508700969740249
1616000050.5502398,-4.493781771727091,-9.570437441087485,-0.5057492605993329
1616000050.6011152,-4.490931514469723,-9.568495736009844,-0.5078701003134062
1616000050.7114809,-4.485911526308458,-9.571221291654615,-0.5071835117139978
1616000050.8216553,-4.4817622580655705,-9.578547268071182,-0.5053798242325803
1616000051.0884929,-4.484339057537088,-9.57161669092402,-0.5060136713823948
1616000051.2009633,-4.48646254693918,-9.575270886086887,-0.5059624243286663
1616000051.2597988,-4.490627236582539,-9.573257375499221,-0.5043509031136806
1616000051.318704,-4.523986733278802,-9.57377733693952,-0.5038319519403012
1616000052.2265787,-4.246085509188041,-9.568836262672523,-0.5114030536736066
1616000058.604826,-4.317112154096161,-9.641935400045798,-0.44241402313687056
1616000059.0809312,-4.405513496198652,-9.966687579107578,-0.20768175851515758
1616000059.4512267,-4.26326581220883,-9.949651769194102,-0.20068405440414946
1616000059.5623238,-4.383147117617565,-9.906252627404273,-0.3250475499900614
1616000059.6197033,-4.440917088827205,-9.851347664367738,-0.3607111989578066
1616000059.6769783,-4.440996609121949,-9.836319937388351,-0.27739351438756077
1616000059.7346184,-4.433755583526738,-9.831434658533189,-0.08693422170398774
1616000059.9994907,-4.46294606519041,-9.765546232740094,-0.0678300533851576
1616000060.0569909,-4.565928918404608,-9.684283042715666,-0.04094084400236939
1616000060.3235562,-4.599219774805253,-9.751390838086245,-0.07478935190412303
1616000060.5471623,-4.602009801286628,-9.751274910408329,-0.11872404380123097
1616000060.7101145,-4.623640503793734,-9.729111931093085,-0.21944019469898743
1616000060.9745028,-4.640141598755797,-9.713720811782155,-0.23010829275199757
1616000061.0877347,-4.623075777462339,-9.708055598926899,-0.2134758774854808
1616000061.2004738,-4.5985398821594945,-9.762968894993342,-0.21045792971150004
1616000061.4739769,-4.644317757443123,-9.78538718954424,-0.23935291027594013
1616000061.6383677,-4.666664555729304,-9.779695872127585,-0.25475674698783446
1616000061.7500477,-4.664393681070291,-9.787510299272247,-0.27092508772277657
1616000062.0206347,-4.674472272023144,-9.780043426745893,-0.2803705350147688
1616000062.9887753,-4.466910385043085,-9.841731096411888,-0.3803506013825824
1616000063.0477057,-4.42819820094692,-9.869548466117358,-0.44770274567091833
1616000063.1597962,-4.411106931748076,-9.867312201641623,-0.4576199610320671
1616000063.3231618,-4.411271278806289,-9.846334188828955,-0.501519948807529
1616000063.435011,-4.358517345261419,-9.77710469544068,-0.5382004789974166
1616000063.547973,-4.311604019171173,-9.733629308261033,-0.5685225864742072
1616000063.8140585,-4.3183629789794615,-9.715130515178423,-0.5806873606094651
1616000063.8732069,-4.339930055697771,-9.665043917926372,-0.5841309321333368
1616000063.9858966,-4.374837605498407,-9.563099460180117,-0.5068843482858654
1616000064.0930161,-4.379928900027499,-9.650414198113307,-0.5480876850074269
1616000064.1526613,-4.411360564916952,-9.642442955570852,-0.5738756150757791
1616000064.2027972,-4.424384459267782,-9.627918526015144,-0.5612243589250213
1616000064.2610443,-4.411607583528353,-9.633404447347441,-0.5466959941824133
1616000064.3748357,-4.325511329843824,-9.73101152990374,-0.545742226921606
1616000064.4874113,-4.2524107530970205,-9.73659802135061,-0.4785920016501626
1616000064.6021512,-4.2225823476820326,-9.764206809411208,-0.460236913810904
1616000064.7660787,-4.208566902093371,-9.796771024360009,-0.41223396673910356
1616000065.0338588,-4.263676405631513,-9.760419963702626,-0.4159367881528201
1616000065.1454585,-4.273957808630772,-9.768525274094587,-0.41357962429931433
1616000065.517623,-4.340173449804435,-9.654826020306382,-0.36291876760507913
1616000065.630635,-4.396096336940075,-9.61915351981299,-0.38236660776555625
1616000065.6901793,-4.525337401702724,-9.588981238992465,-0.4250891059500601
1616000065.9584126,-4.542527177436484,-9.493215273677608,-0.30149695254401904
1616000066.0703533,-4.628221471461054,-9.492899096793613,-0.34679233199328463
1616000066.2350779,-4.574878689222444,-9.520318012970279,-0.33420304922031596
1616000066.6728005,-4.5923611007673655,-9.509389887118461,-0.33385738396156667
1616000066.784928,-4.599695638167465,-9.58206152162553,-0.3301308522540609
1616000066.8351793,-4.565249619268253,-9.61862407362173,-0.33961401331126306
1616000067.3135283,-4.589251918648103,-9.62453230893598,-0.35150087378938616
1616000067.7369866,-4.674866718023948,-9.5724589916233,-0.32422565252673474
1616000067.7959285,-4.725071404131918,-9.516006320863097,-0.32277015517103824
1616000067.8549452,-4.732339837549218,-9.53248950591837,-0.3348709806918802
1616000067.9130933,-4.731399274781989,-9.559772839750595,-0.3437872981761118
1616000068.1286237,-4.703065916988497,-9.56282770321296,-0.3672388127767368
1616000068.3964927,-4.709137178866285,-9.493893556049052,-0.3184159631536321
1616000068.8841352,-4.673758257866671,-9.571030085931891,-0.3948452017595222
1616000069.1005685,-4.687707389916788,-9.651950545156394,-0.4369062944173136
1616000069.525698,-4.698409478492104,-9.69248675521397,-0.4705329390304985
1616000070.2672648,-4.33491873074794,-9.549879428350893,-0.3561663347315089
1616000070.3259702,-3.989421862918235,-9.597805414479948,-0.08889877047691183
1616000070.4370716,-3.8113852579177006,-9.600613887114479,0.07041791315502294
1616000070.711922,-3.589691251334446,-9.512789154283148,0.1939641061074589
1616000071.6628346,-2.927926672626711,-9.386938978421421,0.4876620614357157
1616000072.44916,-3.1159373350091424,-9.588864860469647,0.3038793431378561
1616000073.5741894,-2.9944520570424604,-9.5744788247463,0.20799064420941274
1616000075.0623722,-2.9455007111073157,-9.46495944613385,0.26542538038964547
1616000075.6961114,-2.754415606615075,-9.276889260050913,0.5651411596968691
1616000075.9623287,-2.536309650036459,-9.193252516277594,0.8902737195740446
1616000081.0911224,-2.652012383167309,-9.220700561808071,0.7622758738685448
1616000081.1968453,-2.673092259335636,-9.220543556189991,0.7512406151298593
1616000081.254856,-2.6918613367422797,-9.223363120628091,0.7410157089785607
1616000081.4171023,-2.7244816711411084,-9.229969694527592,0.7173961213698874
1616000081.7854016,-2.7406368544296975,-9.231119997582315,0.7047096601561885
1616000081.8954933,-2.776382431026547,-9.235312084630428,0.6798026879190804
1616000082.8565385,-3.040324569788048,-9.267861444289013,0.49556850197530483
1616000083.5865142,-3.196187759999763,-9.290575881573302,0.3818847683719913
1616000083.6968985,-3.2239082485757677,-9.296630671529995,0.3653138864813887
1616000084.3245287,-3.2826128249029662,-9.309049169978305,0.32444862561359883
1616000084.4362578,-3.3264350611641182,-9.308124257924973,0.29277102476440686
1616000084.6571364,-3.371553230153358,-9.310487055896942,0.2632279180448005
1616000084.982303,-3.4139821877629273,-9.31715565213875,0.23269697981944237
1616000085.0919392,-3.4358189422264447,-9.319603254661189,0.21770805992103548
1616000085.1514087,-3.44433575280418,-9.322307222114578,0.21045597932182514
1616000085.211688,-3.456967395276138,-9.322096649893432,0.2028389195286069
1616000085.4834924,-3.477686244110143,-9.321167301560553,0.18949942502998762
1616000232.297394,0.012710250000000003,-0.15116850000000004,-0.0042805000000000005
1616000232.3579807,0.012000636614750003,-0.3446460993815001,-0.014703721119500001
1616000232.5239632,-0.06323038429334468,-0.5611287930837702,-0.026928597148529732
1616000232.8975306,-0.36178652518484955,-1.1590840258737423,-0.061224439906007434
1616000233.1146905,-0.5646692249936877,-1.565270871434213,-0.08378937452281357
1616000233.3298159,-0.6039975327437508,-1.6504181627198709,-0.08653898077758543
1616000234.661509,-1.5226373030501077,-3.533471625495604,-0.18396645070605935
1616000234.7203822,-1.5814905707194107,-3.6534689151482413,-0.18970301833700876
1616000234.9879947,-1.6703661180284735,-3.8251646623994233,-0.19929772648938127
1616000235.2577233,-1.8381588496192833,-4.15726965059234,-0.2158758829502623
1616000235.8988671,-2.1900682660879713,-4.868485012055713,-0.25132247518564876
1616000236.1152766,-2.278600149506724,-5.050500645850519,-0.26320330773665823
1616000236.2256966,-2.31936825653154,-5.139642307998094,-0.2673726869126987
1616000236.7153914,-2.42537686365703,-5.361184981633008,-0.2798670432110044
1616000236.774764,-2.464533114070255,-5.439664025498511,-0.28466731405110546
1616000236.835376,-2.5029906551002568,-5.523835961391091,-0.28935630950148844
1616000236.8939276,-2.524248248549254,-5.563622601777181,-0.29005024640647353
1616000237.060505,-2.560114833403124,-5.6424367620018145,-0.2948106215029847
1616000237.5369604,-2.6761232151903993,-5.870888336300168,-0.3082015599042929
1616000237.8621922,-2.7930905484833035,-6.12785461053551,-0.32124782428082904
1616000238.5149271,-2.9908937493856347,-6.514267834358768,-0.3430243958394761
1616000238.779328,-3.04906366030628,-6.635743631856374,-0.34864765535106135
1616000239.0984418,-3.1108678087887074,-6.747332465419142,-0.3554536501010847
1616000239.4681013,-3.1885158091584938,-6.90889068107843,-0.36429286805099625
1616000239.5183575,-3.2016056510669086,-6.9392892742676455,-0.3661624393704863
1616000239.6341608,-3.2152645945562397,-6.9646588815249695,-0.36748831497678147
1616000239.8482811,-3.2531471845833253,-7.038975710584796,-0.3748590495336561
1616000240.5423367,-3.368866400938333,-7.284481819151953,-0.387693915121598
1616000240.759082,-3.4011681887140632,-7.35372369214132,-0.3892632693985714
1616000240.816979,-3.432280307341067,-7.417236707261031,-0.39382499228416445
1616000240.9274192,-3.4424075042676563,-7.44036434018842,-0.3953117423613228
1616000241.4122915,-3.525930415234075,-7.62886103978807,-0.4086969475108959
1616000241.469328,-3.534946111081734,-7.652759929390189,-0.40907247803578695
1616000241.687448,-3.576180597640929,-7.746372281578122,-0.41902535858246975
1616000241.7984788,-3.610847938333292,-7.82084826449604,-0.4196865629681397
1616000241.8558786,-3.621026958949959,-7.8394147818510795,-0.4205646973384583
1616000241.913272,-3.6290041893604594,-7.860333134032569,-0.4209965503650737
1616000242.0758424,-3.6444567559921865,-7.898745254665321,-0.42142121901280877
1616000242.1856828,-3.672202087132463,-7.9466311356065065,-0.4242499261369093
1616000242.2425191,-3.6834300662611383,-7.9582523242504415,-0.4259574268755402
1616000242.4084268,-3.6991925579425415,-7.993508352997858,-0.427503124080717
1616000242.7791204,-3.734478528350611,-8.067527307529499,-0.43542327979917694
1616000242.8369308,-3.7432462430671047,-8.081264534454204,-0.43518154700118516
1616000242.8947933,-3.7507887806364337,-8.094164389109663,-0.4372172315311733
1616000243.4226856,-3.8170969614687222,-8.24129590344298,-0.44639827067420523
1616000244.0562997,-3.8903265752302483,-8.376213083732406,-0.4562611052929013
1616000244.1139412,-3.893423309477946,-8.384325952895082,-0.4579109942399723
1616000244.1730604,-3.9060464356193347,-8.40482674143247,-0.45916119045459686
1616000244.7610745,-3.957865730234814,-8.505283214068246,-0.4670634718933233
1616000245.184893,-3.9819663423263805,-8.554055189771393,-0.4693434523099238
1616000245.8230093,-4.03617847754885,-8.639628374528085,-0.47360950224100584
1616000246.1423485,-4.0579221506813,-8.675608386966964,-0.4741443941507963
1616000246.5738137,-4.101431984057348,-8.759974138337306,-0.48095171032326933
1616000246.630103,-4.105567664216775,-8.768274396953933,-0.48130469322003666
1616000246.897134,-4.122292804982201,-8.816085491239473,-0.48370659734862265
1616000246.9540973,-4.1322405513814235,-8.84136613481417,-0.4855463927007712
1616000248.0588071,-4.192110505665285,-8.963126275363546,-0.4907573160565237
1616000248.1165237,-4.194901900608633,-8.96843251260991,-0.4896997428959584
1616000248.1739635,-4.201963102786522,-8.980973205608972,-0.4904800930123288
1616000248.2309005,-4.204568471758656,-8.983650973552882,-0.49240029208220554
1616000248.5027297,-4.212727389828952,-9.001625417237388,-0.49329143100707196
1616000248.6600893,-4.224464055749905,-9.01929363967532,-0.49480773238008363
1616000249.0309696,-4.237060844678656,-9.048257640393173,-0.49691347170914363
1616000250.2357788,-4.288813013671525,-9.151804445360558,-0.5002156692228611
1616000250.2931352,-4.292797884699461,-9.153388036897882,-0.5006135024053262
1616000250.5111125,-4.305962209603705,-9.16145012831933,-0.50290433331693
1616000250.7803278,-4.3160766932087915,-9.178263582106137,-0.5062299797634936
1616000251.5172012,-4.332753715440876,-9.217362964501644,-0.5086764253323476
1616000252.1010456,-4.357023220357777,-9.253450069781938,-0.5057553387323093
1616000252.1604958,-4.360758458272657,-9.254636663393276,-0.5074455574915363
1616000252.374573,-4.3622052663035005,-9.268497121103833,-0.5061504244884801
1616000252.6507711,-4.365937128637131,-9.27928559722883,-0.5045662687609402
1616000252.8056123,-4.370039229777252,-9.283552563843976,-0.5004544000125976
1616000252.85746,-4.372451337479479,-9.284517038205536,-0.4986873560124716
1616000253.019672,-4.375986305863637,-9.283814899145247,-0.5000028526278234
1616000253.1308074,-4.378283811593181,-9.285828962825734,-0.4998746066519244
1616000253.7666395,-4.397647744293578,-9.30517929528988,-0.5057647920900782
1616000253.8241546,-4.400833766850642,-9.306715002336981,-0.5058696441691775
1616000253.8821995,-4.4021571748903146,-9.311321623790477,-0.5047715882502108
1616000254.0963655,-4.4029187471099975,-9.314178448477046,-0.5030881336440317
1616000255.216681,-4.422530922539403,-9.338686714851503,-0.5012638734221679
1616000255.4361122,-4.424590531331692,-9.349871895952202,-0.4993744178921155
1616000256.0173342,-4.429722854973839,-9.373677885416301,-0.49938177702165504
1616000256.552945,-4.436572504101039,-9.376474872900435,-0.4959386701611638
1616000256.657384,-4.438820961269429,-9.378989772929716,-0.4951257406249566
1616000256.8760505,-4.447353952487278,-9.381825990482092,-0.49192041651762825
1616000256.9349663,-4.4481794838327815,-9.382656778271498,-0.4924159502289275
1616000257.0468934,-4.450259503733464,-9.388007541800057,-0.4929540340911781
1616000257.2661996,-4.449119525485221,-9.399258130324652,-0.4915744659873617
1616000257.9609003,-4.457236017265128,-9.408205530339998,-0.49357386894384886
1616000258.7127647,-4.4715042013886235,-9.44441757161028,-0.49362033020121376
1616000258.8220127,-4.47348189278099,-9.446193786935236,-0.49267416063020963
1616000258.8809881,-4.475173478114649,-9.445403280575226,-0.4940165698336685
1616000259.2544842,-4.481291864898259,-9.44972933746515,-0.49303979576909057
1616000259.3119128,-4.482928656786784,-9.447394098649594,-0.49279992883328566
1616000259.4764357,-4.484830646049044,-9.453069350135348,-0.49105053340303817
1616000259.6401753,-4.486624107370433,-9.462588522693306,-0.4908455218578302
1616000259.6997254,-4.488220366296729,-9.463687637466373,-0.4912745666392519
1616000259.8627243,-4.491703438184246,-9.476091361279545,-0.4900107682195144
1616000259.9203098,-4.4930739038024035,-9.47635544766675,-0.49001066053731923
1616000260.1881626,-4.489483261767186,-9.480303735271864,-0.48622764027766713
1616000260.6156173,-4.4946477366412765,-9.4823100361071,-0.48729745218964005
1616000261.035371,-4.494059080700518,-9.48745897088068,-0.4883627653823001
1616000261.4066777,-4.496533755466055,-9.48367855896125,-0.48769610295440147
1616000261.6728215,-4.5035326463156995,-9.483413661501496,-0.4879094334908918
1616000262.4637163,-4.508707927435218,-9.482195114540882,-0.4877174354276509
1616000262.6366825,-4.507720848160866,-9.481173163395473,-0.4869527610733744
1616000262.7978792,-4.506393953282465,-9.476894442443903,-0.4864954011280142
1616000262.9590628,-4.503611213612143,-9.47670311803927,-0.48718376764556676
1616000263.1223135,-4.501525799038587,-9.485485386347152,-0.48579080774222744
1616000263.4914954,-4.5023513162813416,-9.489245938637255,-0.48592369121147555
1616000264.2272027,-4.499776540256367,-9.494238307058293,-0.4859951887827627
1616000264.657433,-4.499035612105266,-9.493539089747832,-0.48589550952598576
1616000264.9736912,-4.496670107557904,-9.493364963104147,-0.48608081263173136
1616000265.513125,-4.498745243965155,-9.495741018333542,-0.48653980211909875
1616000265.5709438,-4.498716963610248,-9.488835272068703,-0.4886089100569287
1616000265.680772,-4.498427917324061,-9.48672280815299,-0.48708137806932783
1616000266.0039475,-4.501142558571137,-9.49411930634637,-0.4914485082523575
1616000266.0610337,-4.500979946655571,-9.498214832150078,-0.49090430793813555
1616000266.1705937,-4.502402570717125,-9.50084285699029,-0.4912415622101666
1616000266.5449028,-4.504624335009743,-9.502123818758244,-0.4931630437436971
1616000267.027443,-4.5001581811779525,-9.514505007501983,-0.492421894304427
1616000267.4541605,-4.5063577014230685,-9.520369979352814,-0.4903925572133147
1616000267.8816197,-4.500019565271336,-9.52203361529831,-0.4940040633089977
1616000267.9381423,-4.500256869618623,-9.520000779145327,-0.49492652267590775
1616000268.6917338,-4.505650374914749,-9.516826927225132,-0.49216660866317224
1616000268.805228,-4.508535506879406,-9.516885811909619,-0.49226328446926737
1616000268.9153583,-4.512495223789581,-9.518233625160091,-0.49140509765724566
1616000269.0255895,-4.512629068836168,-9.517841776019406,-0.49224863621386644
1616000269.2953084,-4.510980734112665,-9.521629851179854,-0.4894998782196784
1616000269.6171367,-4.510999269936742,-9.52234683133361,-0.48858603329367584
1616000269.9918473,-4.507782728953507,-9.524577339140434,-0.48779509298227086
1616000270.846568,-4.505042302416362,-9.514678312304836,-0.4850921058615141
1616000271.0108178,-4.5035014747422935,-9.51732068050107,-0.4841983489753212
1616000271.0689192,-4.500764920394922,-9.517340748959098,-0.48362342683071236
1616000271.818434,-4.498679472842538,-9.526439806607216,-0.4832381246350157
1616000272.2013628,-4.496185980989688,-9.53354766561845,-0.48555921856527734
1616000272.2591145,-4.497973284918313,-9.530312710151916,-0.48586956171467
1616000272.3170192,-4.49788105206913,-9.532659583050398,-0.4852108660975233
1616000272.426922,-4.494738344132954,-9.530329532347695,-0.4853079198621826
1616000272.4861143,-4.494503460691624,-9.527076237024218,-0.48544234066356073
1616000272.708622,-4.492563716823861,-9.526248544907437,-0.48684028808435587
1616000272.9273427,-4.492501823859066,-9.52290332386378,-0.4886417913514772
1616000273.3045952,-4.489993787564271,-9.52083042271889,-0.4886705697035828
1616000274.0011992,-4.493946642822864,-9.510723028928371,-0.4840264279803302
1616000274.2749574,-4.495066621623375,-9.519043532506222,-0.4875536129910799
1616000274.880631,-4.493574827739193,-9.518093599910289,-0.4879145656766105
1616000275.2060266,-4.497496983825206,-9.519124141455361,-0.48655616697233495
1616000275.8520696,-4.502422179581532,-9.51543897922843,-0.4874491007179235
1616000276.389965,-4.505059734458825,-9.519455603962104,-0.4901288558994871
1616000276.7672682,-4.503142746519229,-9.519030499718504,-0.4868017630712832
1616000276.820551,-4.5069530808634966,-9.517995417774106,-0.4871279079861646
1616000277.4024162,-4.513579461157236,-9.517599461189432,-0.48448305506948164
1616000277.4590182,-4.513856166545664,-9.520160966577539,-0.4848007245187868
1616000277.6199949,-4.514498317043091,-9.51742197695922,-0.4853787006998544
1616000278.511954,-4.510209528015573,-9.523603405356424,-0.48338389965407935
1616000278.6761281,-4.5098299949757426,-9.526371310245294,-0.482613850143449
1616000279.4865415,-4.507653157930657,-9.534149516514157,-0.4819765976656474
1616000279.6493793,-4.510292543986959,-9.53745949172417,-0.48011665073838
1616000279.8655396,-4.508126885199122,-9.535308649949368,-0.4774687685838514
1616000280.1909227,-4.50626253518366,-9.533785132815375,-0.47779601508903274
1616000280.2476919,-4.507662409831823,-9.532859781487222,-0.47634305493814244
1616000280.3569498,-4.510062576097409,-9.53192448311727,-0.4761352698634247
1616000280.4136558,-4.511908205833071,-9.532641810903238,-0.47598242799314255
1616000280.679611,-4.514904673313912,-9.533143842164197,-0.4757861646582218
1616000281.0190709,-4.515978373361816,-9.529210328158078,-0.47802315853170796
1616000281.2376595,-4.517636686710049,-9.533094097289895,-0.47575205447567454
1616000281.3468184,-4.520760319842949,-9.533225656316997,-0.4748445339309178
1616000282.7129743,-4.527166666305163,-9.531254402731268,-0.47436806326734765
1616000283.264794,-4.521852103590025,-9.526145246086339,-0.4800420258664051
1616000284.3130262,-4.522508569589325,-9.528430032493988,-0.4847755589110838
1616000285.109521,-4.520612172819681,-9.534195842413272,-0.48395358479475886
1616000285.271329,-4.521643465674764,-9.537523481697754,-0.4836151343727697
1616000285.5926793,-4.522045474213403,-9.530638525113938,-0.48143035055302114
1616000285.6983352,-4.519779740668273,-9.532894816732092,-0.4851155402107921
1616000285.8084395,-4.518900946327277,-9.534315692590027,-0.4829795533154815
1616000286.0256643,-4.516374301820411,-9.529482943454411,-0.48446053635245834
1616000286.1960788,-4.516084807941897,-9.533583484277159,-0.4829041154492801
1616000286.3091977,-4.5189440033651715,-9.5355136153658,-0.4792670373630262
1616000286.4206154,-4.517163422008511,-9.527689398196062,-0.47674708961544393
1616000287.4931023,-4.5170730279515166,-9.522544622249908,-0.4792505797175505
1616000287.7201047,-4.512994481008425,-9.527838705591575,-0.4788333385384678
1616000288.2494671,-4.514524824563845,-9.520186169447001,-0.477641599419679
1616000288.5153296,-4.513617580584479,-9.522796761265472,-0.4770837415750619
1616000288.6769702,-4.512430166073539,-9.523833755909125,-0.47601729986654095
1616000288.8385487,-4.5123342010338785,-9.52188591417962,-0.47691400378027277
1616000289.0017252,-4.517253108274682,-9.522401212773646,-0.47838337691945493
1616000289.3219995,-4.51584717297232,-9.52148941044268,-0.4770666982610879
1616000290.2669976,-4.503462998023981,-9.528093187186704,-0.4782596764890104
1616000290.5854852,-4.5051492223288605,-9.528336483545022,-0.47766348949358123
1616000290.8543048,-4.509868729048706,-9.52991495776828,-0.47779709438021106
1616000290.9677887,-4.508981589177231,-9.525350456107605,-0.47806858538002445
1616000291.190145,-4.512448091364607,-9.527105341413646,-0.47717436115989587
1616000291.6198318,-4.516296435907197,-9.53120212368339,-0.47857442720565674
1616000291.7828927,-4.514419590464318,-9.53215929065787,-0.48132979314322155
1616000291.999163,-4.5141840067079375,-9.53424904006604,-0.4815995657070747
1616000292.219959,-4.515921623774704,-9.532861544327039,-0.4826409507560089
1616000292.3307474,-4.514954877570702,-9.530948904650492,-0.4850152641588287
1616000292.8140717,-4.509520416571833,-9.530042629579823,-0.4854226494330031
1616000293.0463622,-4.506924183159941,-9.531599392779286,-0.48792037283397155
1616000293.4754364,-4.5031081614607595,-9.54155094268865,-0.4860427673512412
1616000294.0597363,-4.502417556205291,-9.552381096640165,-0.4862822380824223
1616000294.1680143,-4.506577446836806,-9.551509212817026,-0.48870909654458217
1616000294.5375252,-4.51019236519789,-9.55230816678016,-0.48843774548971697
1616000294.8023126,-4.515599950885015,-9.546597956127693,-0.4863514843230594
1616000295.026678,-4.518906942984328,-9.537263246804988,-0.48411740996057534
1616000295.1998372,-4.519520499567042,-9.534222464425516,-0.4834949546046629
1616000295.3608053,-4.520402666625658,-9.532567437383449,-0.4837950300080301
1616000295.5754359,-4.5191292798847895,-9.524844421660681,-0.48349232831121647
1616000295.6320922,-4.519700487085942,-9.524883477444074,-0.4835574050281043
1616000295.740355,-4.520440982215082,-9.522384642669634,-0.48344683097782326
1616000296.213476,-4.5189187991179836,-9.529037847275301,-0.4802393109648727
1616000296.5312288,-4.517157693576133,-9.521806303156978,-0.48408956655844537
1616000296.6398942,-4.5179442304192285,-9.518590194146913,-0.483299978592093
1616000297.1318433,-4.513266132706516,-9.523428766437402,-0.4820427265725656
1616000297.3478093,-4.513315511665656,-9.519372283985296,-0.48306995131377156
1616000297.940598,-4.5107723334624845,-9.516712791273699,-0.4813765594088094
1616000298.2124488,-4.512063348447528,-9.511343106732593,-0.48402413042487397
1616000298.4302297,-4.514135253685288,-9.514203323869529,-0.48364532972712476
1616000298.9086273,-4.5112874572836175,-9.517135684387974,-0.48007622629834057
1616000299.2442749,-4.508766219422209,-9.515656657632734,-0.4791851261239637
1616000299.3534064,-4.510753557227987,-9.512725091056407,-0.47841827486272404
1616000299.8314877,-4.512076032872898,-9.517496312597137,-0.48151599252474214
1616000299.9407942,-4.5140625726205394,-9.51545151211669,-0.48107492353076475
1616000300.2610302,-4.50874225572891,-9.516571789042821,-0.4791449559084015
1616000300.528457,-4.500468513480896,-9.52136565688961,-0.47798865037820737
1616000300.7427928,-4.492616299273259,-9.526445622638605,-0.47596840321764694
1616000300.9053848,-4.490786130752929,-9.525717826654096,-0.47611550697489846
1616000300.9628808,-4.490141024383437,-9.526269727734643,-0.472988322802237
1616000326.687947,-4.405959797068225,-9.476066655551199,-0.4336941591266878
1616000327.0116813,-4.408114884411706,-9.317361468922357,-0.35950665495009776
1616000327.606266,-4.4359174224937465,-9.265136888984308,-0.39347295167937557
1616000327.8691688,-4.472985590865481,-9.262308851571643,-0.4587619281229947
1616000327.9830887,-4.493050064581186,-9.262452113871113,-0.49752051259581365
1616000328.3129776,-4.674175287403229,-9.214493444873703,-0.5323821625968324
1616000328.3714428,-4.707366377192066,-9.19077747506751,-0.5470633149855438
1616000328.4846811,-4.741781686458159,-9.135387878459142,-0.5284994941614201
1616000328.5444481,-4.822073918152779,-9.133145660350216,-0.5612615656534784
1616000328.603836,-4.829961809459723,-9.157292784842154,-0.5721183358920046
1616000328.714827,-4.812943819451474,-9.175162033423796,-0.5776180560077536
1616000328.9319487,-4.789598092589679,-9.14310431776878,-0.5606344590637047
1616000329.1484728,-4.811293464709428,-9.141371690331463,-0.6048655203057771
1616000329.2075174,-4.802744948038953,-9.17761306773436,-0.6597853655548035
1616000329.266472,-4.814639076894662,-9.241772069807215,-0.7196032120701273
1616000329.3779342,-4.763649841196772,-9.371502169061623,-0.8164922403317394
1616000329.6676679,-4.698982533019696,-9.430351144164028,-0.7681780401520015
1616000329.9911196,-4.6210104309908875,-9.41169027414651,-0.6923186079229025
1616000330.2588987,-4.648751512326529,-9.476801544361363,-0.7002455663144679
1616000330.31691,-4.642511107231231,-9.46972056862857,-0.69555067954481
1616000330.479451,-4.664461347713883,-9.466176516181765,-0.6883058838119227
1616000330.5896182,-4.660408613438178,-9.412827482962404,-0.6787565787242567
1616000330.7006347,-4.729927793899384,-9.431849693855405,-0.7189726923638686
1616000330.864252,-4.756596623964093,-9.422858429694124,-0.7479318289228707
1616000330.9221778,-4.775060351147207,-9.41444379694321,-0.7485696105273056
1616000330.9805772,-4.816263392246206,-9.439349128237899,-0.7719797829297839
1616000331.0911765,-4.809252266196513,-9.40172912342698,-0.7635903615658114
1616000331.20432,-4.80771673838821,-9.391422302982075,-0.7608480229869453
1616000331.3151667,-4.843283798543429,-9.388051789882093,-0.767673078272648
1616000331.4262197,-4.844101329317177,-9.35165572797563,-0.7510282256780171
1616000331.5953767,-4.757089248290276,-9.376689762199536,-0.7654356366211827
1616000331.9203506,-4.679118903796538,-9.363347382426722,-0.7420934121876182
1616000331.977573,-4.632441769650628,-9.332922775025647,-0.6871522862682642
1616000332.246837,-4.642689671434325,-9.394703852040918,-0.7149860304161797
1616000332.2969155,-4.620716480503054,-9.409684930431451,-0.7010073578267887
1616000332.4610877,-4.385032600648192,-9.414126776437309,-0.5496335225118765
1616000332.7306342,-4.329720406126341,-9.357852805800343,-0.48892282850975116
1616000332.7880948,-4.274456095044426,-9.317744284964917,-0.4522283892224071
1616000333.1062753,-4.297070524565512,-9.320906506957174,-0.4638687675841124
1616000333.1637552,-4.3543897961987375,-9.283340392566098,-0.4606588715799157
1616000333.2734463,-4.4187965359882195,-9.265198284408328,-0.5047307782107694
1616000333.3309627,-4.4772170992403835,-9.301797910695994,-0.5269885354969753
1616000333.7212098,-4.573134339339509,-9.369348162665688,-0.6218133345961948
1616000333.7778807,-4.589177995946114,-9.43157968103903,-0.6641577012502329
1616000334.0966778,-4.623779867535153,-9.534090924451634,-0.8079384771820534
1616000340.7609556,-4.765151860756244,-9.236881781792803,-0.8658582214095067
1616000340.8199713,-4.8246226523615245,-9.190515109894356,-0.8871315099991688
1616000340.878287,-4.9009619124637345,-9.140097404365383,-0.8923296732706835
1616000340.9362297,-4.9825628102016495,-9.099041707608327,-0.8782798346448709
1616000340.994437,-4.9806313159258515,-9.12742885860065,-0.9011510302760836
1616000341.0544972,-4.932610222711538,-9.205287132821352,-0.9278178447758536
1616000341.1118522,-4.936214654279578,-9.300173418878208,-0.9347817696648142
1616000341.2236326,-4.925443890393359,-9.493763300349466,-0.9766582900231229
1616000341.282161,-4.992445276731331,-9.453999578496877,-0.9861628315548383
1616000341.3409998,-5.044440904168248,-9.411553474152697,-0.9929685049722361
1616000341.39848,-5.050533153512311,-9.414148943735219,-1.0064607346944954
1616000341.5089996,-4.98594645551781,-9.482579607036701,-0.9521092161441578
1616000341.735484,-4.889516228073182,-9.510573306678168,-0.893120014163041
1616000341.8506105,-4.786146658916138,-9.634932778029594,-0.9235811485109592
1616000341.9079275,-4.7616082422796735,-9.652905732768444,-0.9071304032333447
1616000341.965698,-4.783304576311548,-9.636986236775458,-0.8695883327011855
1616000342.0768511,-4.832812735551256,-9.681052452133573,-0.8352309878917951
1616000342.1344297,-4.883041241579994,-9.696560130752397,-0.8135552845689945
1616000342.192187,-4.855256397252187,-9.676630964263332,-0.7949002931838907
1616000342.2498038,-4.845597836384528,-9.64837022469117,-0.7646446608827229
1616000342.3071806,-4.86174594352061,-9.66220764470364,-0.7763928263242467
1616000342.3648803,-4.883659840165537,-9.696914665722128,-0.7755817470364723
1616000342.422311,-4.905371919072753,-9.68253053932816,-0.7773152752070647
1616000342.4794657,-4.91743466947733,-9.67963559111928,-0.7631629826384583
1616000342.5370383,-4.898632796285986,-9.720283087154716,-0.7453721575433052
1616000342.5944717,-4.89864944024246,-9.746995739741301,-0.7352599409761905
1616000342.6518478,-4.927710487327784,-9.729242080906417,-0.7078382288221686
1616000342.7088833,-4.936745355462224,-9.709896678842803,-0.7039601704695422
1616000342.7664146,-4.903930037542865,-9.730339068298562,-0.6940470677231925
1616000342.8238666,-4.837903367482826,-9.738228583929716,-0.6960773384320984
1616000342.8811748,-4.7934191622570665,-9.729321740615838,-0.6681971720742934
1616000342.938632,-4.805498207196713,-9.67961122915541,-0.6580417967165962
1616000342.9962401,-4.839904190045316,-9.678722299715382,-0.6516869948391933
1616000343.0538256,-4.821272468598289,-9.727394311495825,-0.6441087589969304
1616000343.1113353,-4.756576149058157,-9.74912168098389,-0.636265095849518
1616000343.1688368,-4.711268970952466,-9.748738389042417,-0.6322071776089362
1616000343.2273319,-4.668607291433744,-9.761678013085472,-0.6349685840545055
1616000343.3411837,-4.694604195099476,-9.812692411281136,-0.6730410185294143
1616000343.4003584,-4.708885684056025,-9.795132881142598,-0.6645795919829096
1616000343.4595108,-4.715249518900338,-9.770579347682883,-0.6692939456737109
1616000343.5182002,-4.695082835404109,-9.785944489481855,-0.6838130308981354
1616000343.5769427,-4.6543684271238375,-9.839175043622479,-0.6853674542778382
1616000343.6915271,-4.711280813416627,-9.8283235625732,-0.6926733873615429
1616000343.7433183,-4.743548691307566,-9.7983167515468,-0.6946816956826827
1616000343.7938955,-4.75852816912704,-9.77231451320911,-0.6981681196392113
1616000343.8538678,-4.75621237124854,-9.788813003666263,-0.7176297900221289
1616000343.9056334,-4.753829641671487,-9.820306375432928,-0.7371422359023948
1616000344.01765,-4.839619032304516,-9.775610808326853,-0.7585208548683743
1616000344.075011,-4.8670826141267804,-9.77534522620415,-0.7693850608883493
1616000344.1322556,-4.864523260598724,-9.800861988527112,-0.7440006009449008
1616000344.2429302,-4.8454655172784795,-9.759481817633898,-0.7015026158776755
1616000344.3000185,-4.794922426373016,-9.75317498566518,-0.6844040727549913
1616000344.3572602,-4.768375133504978,-9.768035666000035,-0.6761368964035324
1616000344.414324,-4.789190944703099,-9.787413631384824,-0.6898740911865165
1616000344.5249104,-4.847568775375241,-9.726056391585871,-0.6766761340141533
1616000344.5824063,-4.848772281745274,-9.722794119393313,-0.6752065289472716
1616000344.640644,-4.833082903601549,-9.772794962902147,-0.6513233540459967
1616000344.6991203,-4.822545610476749,-9.794160512107783,-0.6623161156282378
1616000344.7582636,-4.86315639355956,-9.783418435156365,-0.627638234360247
1616000344.8156714,-4.882431895409303,-9.760300748684148,-0.6200740899248983
1616000344.8729,-4.88312515943375,-9.755666189897479,-0.607403866880039
1616000344.930194,-4.881773191851472,-9.74409125677122,-0.6050637142449512
1616000344.9869232,-4.849193591280292,-9.75448503735386,-0.6148707293681619
1616000345.0442264,-4.7810194757826565,-9.7757981387417,-0.5908551567395025
1616000345.101544,-4.800506656156611,-9.752620571653205,-0.5942410730768907
1616000345.1582513,-4.816527750462105,-9.760821016804533,-0.6054222877154339
1616000345.215412,-4.825696754981942,-9.779522484534787,-0.5829581042791977
1616000345.2724996,-4.806797718880601,-9.776331427036903,-0.5830037227302614
1616000345.3302155,-4.802255423937593,-9.756573962644262,-0.5742309355631371
1616000345.3905964,-4.796823057280333,-9.754068797562233,-0.5675221656095614
1616000345.4510903,-4.82019018130037,-9.747216569961617,-0.5583164164242679
1616000345.5113652,-4.848115091735811,-9.721338500823514,-0.5650738671596502
1616000345.571371,-4.836604476410268,-9.718374864657125,-0.5637636472031732
1616000345.6316423,-4.8260136198628425,-9.694358930273925,-0.5409210829489158
1616000345.6871557,-4.809154119933403,-9.6896345729415,-0.5596880212431076
1616000345.7482238,-4.803543307167262,-9.712239256490564,-0.547711458574166
1616000345.8089721,-4.803025280589576,-9.720819792700203,-0.5575652821876242
1616000345.8603885,-4.808424422663477,-9.703926960871842,-0.536845206471456
1616000345.9185355,-4.782032052635949,-9.700897958706989,-0.5288758519940473
1616000346.0331244,-4.75500513837594,-9.730392782669547,-0.5331197501716386
1616000346.0940287,-4.745308606215925,-9.736665509415163,-0.5355362740045727
1616000346.1543334,-4.733747132400182,-9.714610438031208,-0.5146499463063686
1616000346.216098,-4.717153128870056,-9.68607953148963,-0.5206883852936118
1616000346.2756543,-4.703966882924201,-9.719410040491692,-0.5076577082087224
1616000346.3345318,-4.670831162934124,-9.743603943650257,-0.511951578213543
1616000346.392513,-4.685424551410678,-9.7151049640657,-0.5071969878076323
1616000346.4504368,-4.697866905704725,-9.676630702053204,-0.5047546194259349
1616000346.5636609,-4.724545759500651,-9.687476147083157,-0.5263188687469526
1616000346.6215525,-4.730175869333357,-9.692738295064421,-0.5198671858839761
1616000346.6796935,-4.737424630875855,-9.684048117075331,-0.5035277431205499
1616000346.7386353,-4.707280131991994,-9.653702577829971,-0.4858720626838711
1616000346.8517835,-4.655235677344434,-9.733008648917922,-0.4807357816369301
1616000346.9102356,-4.636885855049169,-9.760041724777587,-0.49063816477949473
1616000347.0210955,-4.7155788348585626,-9.720596549073225,-0.48756799858673155
1616000347.0777822,-4.719260546509977,-9.722265583582493,-0.48671731860086426
1616000347.1357934,-4.732672136634429,-9.7343579984692,-0.48032864396070707
1616000347.1939716,-4.766434308401708,-9.7386110846161,-0.4795827277648658
1616000347.252345,-4.755315716394012,-9.696139206837508,-0.4738440661785378
1616000347.3103037,-4.740943228326547,-9.637597537133997,-0.45207166415994654
1616000347.421498,-4.747850705370665,-9.687543556738554,-0.46721067978577185
1616000347.4785967,-4.748018543159199,-9.703770536456721,-0.4600019039026591
1616000347.5369425,-4.820520077284092,-9.651324869442503,-0.4415431256889848
1616000347.5896947,-4.836266206718678,-9.640102730745191,-0.44111046456289627
1616000347.640029,-4.838043830362927,-9.642199434539329,-0.45157179515491364
1616000347.7580886,-4.790952029724871,-9.66838287021073,-0.4782683454572183
1616000347.863897,-4.838236182228066,-9.612460508051232,-0.4744007573108117
1616000347.9182281,-4.836228820405785,-9.62089840297072,-0.4769192497377036
1616000347.978095,-4.8091736625663035,-9.662338878759046,-0.4764688752902317
1616000348.091353,-4.780676599676059,-9.640727763433349,-0.46336065910925806
1616000348.1499343,-4.805763382083198,-9.634128102415922,-0.47531594724188514
1616000348.2075713,-4.825286774192643,-9.640104463256634,-0.4825966162334511
1616000348.2658184,-4.851250415215771,-9.633454966109138,-0.49876203876617087
1616000348.323372,-4.854358263658693,-9.628129678178656,-0.48623262676546664
1616000348.3820164,-4.840035786867757,-9.588258526373668,-0.48327619636894914
1616000348.4416854,-4.8476371377848775,-9.591271528070527,-0.49603657514748906
1616000348.499301,-4.817911302108259,-9.646981727181362,-0.5078150084063606
1616000348.556935,-4.810016461939098,-9.647910835860825,-0.5178282364432665
1616000348.6148155,-4.8262506017561595,-9.613239795285537,-0.49693772080968607
1616000348.672829,-4.821007560835996,-9.57559986515151,-0.49586644649724565
1616000348.73034,-4.83861738881889,-9.571469241683578,-0.49499003174813266
1616000348.7880535,-4.905308108830134,-9.591026425682232,-0.5006477579925342
1616000348.8456845,-4.940039167900373,-9.618883950952414,-0.527424370893074
1616000348.9038746,-4.938153822541318,-9.614338473862924,-0.5395921880816471
1616000349.0149097,-4.785449020736621,-9.665799594013123,-0.5582141786504028
1616000349.1257555,-4.823556146764717,-9.653244506225057,-0.5533619756562294
1616000349.183891,-4.83762833401773,-9.596441347075244,-0.5385951731073302
1616000349.2443545,-4.8108158093203786,-9.581854435112005,-0.5323939769546606
1616000349.295248,-4.784170024753076,-9.582739868169396,-0.5333545662731789
1616000349.355908,-4.784974272426905,-9.599808576093949,-0.5424887737147962
1616000349.4060988,-4.772809509061553,-9.616033532825382,-0.542648453396693
1616000349.4561312,-4.7881392248312284,-9.610109715522157,-0.5363761241740987
1616000349.5162675,-4.810461779573522,-9.61631863584664,-0.5334732111061198
1616000349.5668604,-4.80004497925841,-9.634609093543359,-0.5304433007630569
1616000349.6273813,-4.736971153532075,-9.655623474421542,-0.522988975146155
1616000349.6778476,-4.697547951855509,-9.638238834991672,-0.5413010359993857
1616000349.7344623,-4.672956857637449,-9.650144462103585,-0.5370275601791681
1616000349.795596,-4.71976255346256,-9.678066011968596,-0.5432691162105873
1616000349.8553202,-4.795569549078547,-9.675839863926146,-0.5818312460131165
1616000349.9130447,-4.834987449948753,-9.654332313495908,-0.5877632460068928
1616000349.9701416,-4.800975245820639,-9.623795067920156,-0.5553137832143559
1616000350.0799737,-4.7315003464381755,-9.64066905724687,-0.5676356672916729
1616000350.1369,-4.667438663389628,-9.697824537959303,-0.5667691578465684
1616000350.1939669,-4.68036560244681,-9.702112200018801,-0.5639606643309739
1616000350.2509308,-4.7314009763905105,-9.679200336822777,-0.5477238021847501
1616000350.415721,-4.656835319306826,-9.649866357228946,-0.5751499352234754
1616000350.6314912,-4.80520844725883,-9.54220349414078,-0.5639135890119322
1616000350.6883368,-4.776843821166796,-9.582248581911307,-0.5729011315046888
1616000350.746058,-4.764426624580977,-9.59104453956216,-0.5788044321853895
1616000350.8034291,-4.7495422139147765,-9.564470723355715,-0.5823930017138247
1616000350.8604846,-4.73897776247172,-9.56744967344464,-0.5752339055423661
1616000350.9173858,-4.7643594063938455,-9.57693732026723,-0.6085407899500317
1616000350.9746573,-4.787239871062896,-9.581687466081295,-0.6362736321732486
1616000351.0317214,-4.8214082815684325,-9.5501709083972,-0.6208810965338302
1616000351.0885363,-4.858511141668093,-9.490822514324426,-0.6049194770648221
1616000351.2055,-4.842373582945377,-9.531242032325144,-0.6190698205080247
1616000351.2557333,-4.849038170158317,-9.543848481473054,-0.6262811715191159
1616000351.3152618,-4.860886272466445,-9.523521432724824,-0.6152788881938267
1616000351.3750813,-4.878136200217715,-9.480403383273323,-0.6123213396574888
1616000351.432945,-4.904958448353198,-9.463908678250355,-0.6222925459503384
1616000351.4924643,-4.914629707095458,-9.526511090614846,-0.6426238532940853
1616000351.5428598,-4.893997078800867,-9.571884089790371,-0.6495617232676238
1616000351.5928743,-4.890279705313402,-9.565718696689508,-0.6354396930248523
1616000351.643853,-4.8903170926705295,-9.550467367434843,-0.6118543051402979
1616000351.704274,-4.903631563279111,-9.551363297293113,-0.5831379139940928
1616000351.7580698,-4.878264105968158,-9.555882369750211,-0.5923828198105542
1616000351.8096447,-4.80743475828173,-9.572384905298899,-0.6118735360900673
1616000351.870579,-4.723873008503243,-9.61585741241435,-0.6277862596052097
1616000352.3107674,-4.8109021050276874,-9.685903713908232,-0.6864838349086754
1616000352.4253926,-4.582427960015198,-9.600759715324429,-0.7240634926177723
1616000352.4763205,-4.391616574674787,-9.561943754769578,-0.8080411703235318
1616000352.8027885,-4.429395877620018,-9.47851615803694,-0.7335035509593548
1616000352.911844,-4.448545905658826,-9.439873233377085,-0.704468763242311
1616000353.0251563,-4.587680922024793,-9.482509010041396,-0.6988803574863348
1616000353.0760229,-4.667534742209734,-9.488964676184157,-0.6892208782386332
1616000353.1361516,-4.690476231415549,-9.471415194948444,-0.6688080382447269
1616000353.1866374,-4.714094308072613,-9.428796926520846,-0.6595990028438121
1616000353.294105,-4.709891039346905,-9.477095285969776,-0.6618607244269271
1616000353.3482394,-4.710968766837263,-9.501304276381187,-0.654670289050723
1616000353.4609666,-4.739628498279956,-9.47123423414131,-0.6228173054969678
1616000353.5736027,-4.674133533650479,-9.44690334030483,-0.5994958299850184
1616000353.6274688,-4.60758712003185,-9.482614230539994,-0.6176648871827469
1616000353.8024786,-4.708489264606331,-9.45741650653903,-0.5868202017082395
1616000353.8623035,-4.802194584896176,-9.46357461022703,-0.53430978477333
1616000354.026675,-4.812738569298531,-9.463283946482282,-0.4954233866292983
1616000354.0843792,-4.752831515253777,-9.487301613837936,-0.5121196936317913
1616000354.2182477,-4.781803276766983,-9.47527855565109,-0.51676712706192
1616000354.3319423,-4.856615077616465,-9.487438015139816,-0.4605565333052008
1616000354.390399,-4.839073731946178,-9.535364279902149,-0.443085941209503
1616000354.5026557,-4.750442734098253,-9.553356284844718,-0.4584234024065034
1616000354.5543523,-4.696809843170773,-9.53463467970526,-0.45307589019231154
1616000354.6159976,-4.6668862855435345,-9.554450774361676,-0.4415921240385983
1616000354.6662426,-4.66722716247934,-9.597501115043235,-0.4468001802489026
1616000354.7165842,-4.670979690091276,-9.596603466368583,-0.4721909776393767
1616000354.776872,-4.687599444815874,-9.54432217431397,-0.4456437746625096
1616000354.8957264,-4.650033477564689,-9.56651215050379,-0.46093826999892884
1616000354.9471755,-4.66588332699754,-9.593047034371676,-0.4738905286916906
1616000355.0046053,-4.695134538764363,-9.594387683647264,-0.49064171501302856
1616000355.0566766,-4.718212128737737,-9.584187399029705,-0.48147724734357233
1616000355.1161654,-4.715225478925836,-9.584378062960836,-0.5082433604687285
1616000355.1751704,-4.707212029678308,-9.613082072173466,-0.5494273389307498
1616000355.2885604,-4.679201796384346,-9.574383152850391,-0.5747154722293063
1616000355.3480039,-4.760952980079935,-9.551387670077581,-0.5690279704886236
1616000355.406501,-4.848969615407771,-9.555154663583574,-0.5703760670484719
1616000355.5348387,-4.786965147674845,-9.555202478407935,-0.555030742773067
1616000355.587788,-4.776644107073755,-9.567442247096741,-0.5491135346819641
1616000355.6421587,-4.784345159199558,-9.57954461741572,-0.5506182285883752
1616000355.8693852,-4.792295219779326,-9.538491255862773,-0.5443334742427789
1616000355.9291143,-4.783665544905717,-9.570241029871104,-0.5519567381053476
1616000356.0345035,-4.833582811484464,-9.55686766616824,-0.5573008183391089
1616000356.1480832,-4.849675561756282,-9.598025157843262,-0.5558018513552951
1616000356.201119,-4.831466331155093,-9.634619094166357,-0.5831774404000096
1616000356.2553732,-4.807832622644421,-9.662977339438516,-0.5783797759202621
1616000356.3108997,-4.793214478419259,-9.657425488229853,-0.5696699269456544
1616000356.3710124,-4.819971635298716,-9.629009471014077,-0.5676364953994358
1616000356.4328215,-4.8118499497562714,-9.634082557540898,-0.5693159041409871
1616000356.4886243,-4.773977976898561,-9.661116366499376,-0.5671307499720956
1616000356.540572,-4.76092831515828,-9.658754400806039,-0.5628929730476508
1616000356.6012468,-4.770656367724566,-9.629208267259223,-0.5503296396291109
1616000356.667765,-4.7573728472048105,-9.623640057975724,-0.5429063815749617
1616000356.7294743,-4.737088208457282,-9.63729965711765,-0.5386066585819458
1616000356.791894,-4.711064052572992,-9.641111415822191,-0.5523647486529419
1616000356.8421137,-4.692596146647521,-9.623011834410857,-0.535155844503201
1616000356.8934665,-4.746181677245942,-9.593706742417021,-0.5372723995156115
1616000356.9439917,-4.7722581640000605,-9.598642440960495,-0.5650418157275983
1616000356.9944599,-4.742404081771094,-9.642317331821527,-0.5495267975086728
1616000357.045097,-4.687292473732027,-9.671399009901606,-0.549683122124909
1616000357.1060076,-4.675997136660439,-9.664387758155138,-0.5790836336970051
1616000357.1645138,-4.718392443003843,-9.671413449960031,-0.5740874944839133
1616000357.276776,-4.757519440918268,-9.657935680568865,-0.5959035191352929
1616000357.3349445,-4.758160976157335,-9.663141107388675,-0.6101008733570578
1616000357.3932745,-4.767735735546221,-9.642911513207547,-0.6217683988042371
1616000357.4513805,-4.8472499412779895,-9.596474968496906,-0.6168906535480844
1616000357.5093625,-4.907850453476871,-9.600920917165505,-0.6027389285670822
1616000357.5673335,-4.962769811849072,-9.603418807667223,-0.5834258658407142
1616000357.625367,-4.951448336917343,-9.609361494410697,-0.5902018241993792
1616000357.6836245,-4.916022339173546,-9.625446810790644,-0.6052135813325636
1616000357.7420478,-4.86020849601904,-9.620394913361215,-0.5721126448933623
1616000357.8629384,-4.879764738587756,-9.611055480044486,-0.5663487462591945
1616000357.9678807,-4.8918238419877635,-9.579563531765578,-0.536024496205488
1616000358.0257134,-4.870971998306885,-9.576006337808607,-0.5385679151436888
1616000358.0822704,-4.814795108145321,-9.609024926408662,-0.5273570894635461
1616000358.139871,-4.807878053638297,-9.608300109569397,-0.5346661315493892
1616000358.1925702,-4.798414497567187,-9.608061638015077,-0.5319073465262409
1616000358.2505264,-4.776751018574944,-9.626416911804391,-0.5310667226770651
1616000358.302054,-4.741534632019027,-9.65355735006332,-0.5381540046973653
1616000358.3530169,-4.745137180569296,-9.660929272139498,-0.5301658025153103
1616000358.4105744,-4.779037002419207,-9.668582859327683,-0.5351216467648031
1616000358.4649813,-4.824783717828749,-9.649401124349565,-0.5372184883218993
1616000358.5201774,-4.8628826730592625,-9.610059697277206,-0.5319368682802481
1616000358.5718465,-4.858440432865383,-9.610445384301391,-0.5390560746014712
1616000358.6302974,-4.7963891363456606,-9.657343971107833,-0.5554400245659358
1616000358.7421172,-4.814865397863778,-9.6381046552096,-0.5599288493042985
1616000358.8005447,-4.821523873500008,-9.6272854918057,-0.5724732309854695
1616000358.8586318,-4.762301921531314,-9.656581874759224,-0.5811203718015359
1616000358.9165397,-4.747678979814055,-9.678208891309211,-0.5923780133145741
1616000358.9748197,-4.772784974351299,-9.673974890647145,-0.6038624687563148
1616000359.0331593,-4.802715106812309,-9.654261392133332,-0.5804716457760657
1616000359.0916495,-4.862257776814547,-9.589851291784647,-0.5850307456941158
1616000359.1493664,-4.883798045212025,-9.587611424869179,-0.5530615975035924
1616000359.207454,-4.894503148216206,-9.598247447205026,-0.529662692974715
1616000359.265469,-4.915426258170962,-9.589931317223181,-0.5663613484466926
1616000359.376728,-4.8713218192596965,-9.61438817393543,-0.5712603213604195
1616000359.4880252,-4.924401200173931,-9.63314696143924,-0.5889760953476533
1616000359.6518307,-4.888234074739331,-9.585502603554362,-0.5800420667368122
1616000359.7124772,-4.8548698214906425,-9.601048061843931,-0.5837337947895356
1616000359.7686532,-4.863983623275736,-9.589650081225493,-0.5785089568416402
1616000359.8237424,-4.904478536586515,-9.552546738146384,-0.5763015051913417
1616000359.8807287,-4.8895308683213585,-9.537998702476697,-0.5644804054356536
1616000359.9330413,-4.870395785751346,-9.534126663014437,-0.5608286604138093
1616000359.993244,-4.868074953696298,-9.557162435510396,-0.5690692608821535
1616000360.0529463,-4.9026453784890975,-9.55918419559817,-0.5773062747920458
1616000360.1109886,-4.905436808102594,-9.53540775205471,-0.5742869873744472
1616000360.2223284,-4.836775857311812,-9.586017886663894,-0.5809828258135337
1616000360.333386,-4.842284593348056,-9.60432719265547,-0.5842569783800055
1616000360.39157,-4.890340679891025,-9.595388978206408,-0.5878714381151409
1616000360.449694,-4.878367473857582,-9.6141495264147,-0.6027911872816831
1616000360.508518,-4.820099906416609,-9.646326703582675,-0.6638507490874132
1616000360.5672681,-4.751441769806617,-9.694728516012665,-0.7043414965382914
1616000360.6789315,-4.731554565122484,-9.694863587949829,-0.6767533341901104
1616000360.7368371,-4.746475232983782,-9.682081675774132,-0.6664981984113298
1616000360.7971485,-4.719150273530541,-9.714228064955245,-0.6514609727411117
1616000360.855835,-4.706446017209408,-9.740051859406895,-0.6721123288363474
1616000360.9141285,-4.736554089329131,-9.736065186679324,-0.6950664411871083
1616000360.9727075,-4.7798658022690335,-9.743872326914824,-0.6928414985490935
1616000361.0292912,-4.779529405820083,-9.760372569483796,-0.6946179299686801
1616000361.0837524,-4.768455991370941,-9.761995412022081,-0.7120103666273736
1616000361.1381712,-4.719360342142659,-9.790804203322843,-0.7117591103314889
1616000361.1904492,-4.671677971870681,-9.822739036429951,-0.7066784217455334
1616000361.2486424,-4.68239324192815,-9.810005831808944,-0.7307075384412693
1616000361.3042703,-4.6978600322846455,-9.816036073912402,-0.777989072203605
1616000361.3556423,-4.690810713726101,-9.833453402841318,-0.8180851900323849
1616000361.4140632,-4.658694207217723,-9.829520100823528,-0.848221823053233
1616000361.4722733,-4.548719826819149,-9.806477290558968,-0.8814107379367289
1616000365.9031668,-4.341421238887095,-9.64959078498095,-0.9143920257863759
1616000366.3848648,-4.320514425667819,-9.658309011552372,-0.8645977556037413
1616000366.4444478,-4.334088591193949,-9.659404800481752,-0.8531281157254089
1616000366.502701,-4.342532761242055,-9.654705093276691,-0.8374325644487998
1616000366.560022,-4.350076449450404,-9.648077414801282,-0.8289631148521059
1616000366.6174402,-4.35268072144328,-9.64355683978631,-0.8158707040080886
1616000366.6749182,-4.3606116300856925,-9.644129270587817,-0.8049004044783443
1616000366.732618,-4.36747164936734,-9.639866521398481,-0.7929188027315158
1616000366.790139,-4.373787034304557,-9.642666809827707,-0.7792025319744176
1616000366.8475115,-4.374868785675638,-9.641063611189374,-0.7683011109793078
1616000366.9051728,-4.381326351667502,-9.640238815648182,-0.7541236723264374
1616000367.0160573,-4.395777255349056,-9.639339514011324,-0.7421378176578508
1616000367.073753,-4.401356638098559,-9.64090429671242,-0.7305437396301168
1616000367.131409,-4.40678764292767,-9.634377018361045,-0.7208314258592274
1616000367.188945,-4.4110523861372375,-9.638363070272334,-0.7101091887588549
1616000367.2481275,-4.42148078088329,-9.638694181306978,-0.6993260057279819
1616000367.3062136,-4.419127765563341,-9.641923693474713,-0.6912987382512461
1616000367.3578787,-4.4203023195678615,-9.648400211063771,-0.6834698143196813
1616000367.4173322,-4.423584946808132,-9.650936471556017,-0.6804842771534266
1616000367.470104,-4.4222450965529845,-9.652949524914332,-0.6731772936376926
1616000367.6373239,-4.424810909214951,-9.649223962010563,-0.658999601172365
1616000367.6966448,-4.431281212394391,-9.649164176088203,-0.6499604604333625
1616000367.75654,-4.434341737259249,-9.647385794304785,-0.6468475083083003
1616000367.8164775,-4.4305696890898245,-9.64434276107546,-0.6428156734650511
1616000367.8766296,-4.4347520170848345,-9.64887700866023,-0.6360206837154061
1616000367.9359033,-4.437923299171382,-9.648106362942254,-0.6304584011543213
1616000367.9919336,-4.440963624220066,-9.65102509827294,-0.6292214893948204
1616000368.051884,-4.442596263935499,-9.650076036134612,-0.6220948917897325
1616000368.108981,-4.441497959173574,-9.648852632334323,-0.6145796767765278
1616000368.166692,-4.445593409915725,-9.637762293555614,-0.608407410621736
1616000368.223621,-4.446715601058402,-9.642011948913858,-0.6077109781503633
1616000368.281118,-4.4487180048006385,-9.65052966660461,-0.6029852893347418
1616000368.3381357,-4.4496719769112625,-9.647380140894374,-0.599783184459537
1616000368.3953393,-4.455019378470223,-9.649755015104283,-0.596155089847856
1616000368.452752,-4.4570284743464885,-9.654597235398423,-0.5892960766906766
1616000368.5112963,-4.464059823020738,-9.654012190410322,-0.5842492968850658
1616000368.5683553,-4.469084208027326,-9.65396766027752,-0.5786705539832686
1616000368.6797378,-4.475335971207428,-9.661325062450905,-0.571324162605363
1616000368.7398746,-4.477913383301329,-9.65508326849084,-0.5680338725403029
1616000368.8001966,-4.481201130249858,-9.65146158864256,-0.5670448961445635
1616000368.857808,-4.486614652628374,-9.64151718658487,-0.5609327651218088
1616000368.9153898,-4.490081717839253,-9.640179636596928,-0.5538722112912339
1616000368.973043,-4.491572279685904,-9.638498314936278,-0.5498827862109489
1616000369.0302093,-4.493942838906953,-9.642620258984355,-0.5498350188276975
1616000369.0874672,-4.493175257648577,-9.64134506717226,-0.545984878933496
1616000369.1474543,-4.498133805521416,-9.641012445078893,-0.5435790640309858
1616000369.2059326,-4.504143347510437,-9.629415281421597,-0.5445348135430473
1616000369.2638245,-4.5019300239874545,-9.630590200037823,-0.5418516358357147
1616000369.321397,-4.500557196016553,-9.632476054013935,-0.5370441486832606
1616000369.3802726,-4.503091067382789,-9.63537811968133,-0.5386607853564868
1616000369.4939861,-4.504889176947687,-9.629770753121855,-0.5358105501097206
1616000369.5541608,-4.500542138650325,-9.627586065936539,-0.5347823891981645
1616000369.6681576,-4.497217857799911,-9.63456953400396,-0.5290378964618749
1616000369.72803,-4.4997637242870585,-9.63322274561032,-0.5286588838033944
1616000369.78798,-4.503135532929085,-9.620280268111774,-0.5274675839828934
1616000369.847963,-4.499290445156569,-9.617218500433724,-0.5249279561016493
1616000369.9080057,-4.496044228234288,-9.617887417662045,-0.5255464213892626
1616000369.9679213,-4.495848056325883,-9.613898883721882,-0.5264999611044913
1616000370.0238636,-4.503551949722898,-9.613535169171694,-0.5275766240646295
1616000370.0843723,-4.507984654660846,-9.615299249951867,-0.5249603603614205
1616000370.1437793,-4.5067296192084365,-9.612825902897255,-0.5251351373213426
1616000370.203654,-4.506548301538326,-9.607210124505304,-0.5247871961077615
1616000370.2559104,-4.506965184042493,-9.603839418006398,-0.5246994534052032
1616000370.3150742,-4.5067101580622575,-9.600611416582117,-0.5237037112075668
1616000370.3728304,-4.508483173316588,-9.594233646649686,-0.523382728851099
1616000370.430388,-4.5083328885671525,-9.595683777987517,-0.5239811616346549
1616000370.4878047,-4.5133978159438195,-9.597280705347508,-0.521857075902944
1616000370.5451043,-4.513759737412472,-9.602512447367982,-0.5184888276415506
1616000370.602712,-4.510733134382069,-9.607227570729519,-0.5171981493370512
1616000370.715007,-4.503486854191139,-9.614880320673784,-0.5131922530612595
1616000370.772775,-4.4948649126098505,-9.612957186616214,-0.5103412412593955
1616000370.8842692,-4.49225139019075,-9.608192540031085,-0.5069501323085821
1616000370.9422917,-4.490038971602221,-9.60582684223422,-0.5060317935100751
1616000370.999999,-4.493864673846816,-9.609802189452955,-0.5049383071022577
1616000371.057632,-4.493252005069681,-9.61683479416337,-0.5027706664790976
1616000371.1076643,-4.493769227381935,-9.621698684827505,-0.5051140360023619
1616000371.1685462,-4.499663231855156,-9.615025991687371,-0.5029905798869516
1616000371.221437,-4.502520791626267,-9.618108975023683,-0.500704576681992
1616000371.2800288,-4.506566089553234,-9.611872875077939,-0.4975322996994605
1616000371.3313725,-4.508723869826138,-9.607526841639597,-0.49700431337492595
1616000371.3825727,-4.505870656609249,-9.606732289434401,-0.4972289728057435
1616000371.4374511,-4.502902984839925,-9.609416106943849,-0.49841425333359574
1616000371.4889684,-4.503788118287194,-9.611415595401509,-0.49737858284533465
1616000371.656677,-4.502944779842207,-9.597993920895094,-0.498913783392456
1616000371.7174447,-4.502532763354252,-9.606009112003584,-0.4977602308357975
1616000371.7765598,-4.508423749334869,-9.602170442426786,-0.49891769974004607
1616000371.8370419,-4.509842294305875,-9.600133439366267,-0.49917692514006695
1616000371.888195,-4.508465729572696,-9.60304289358365,-0.5003042825364817
1616000371.9472861,-4.503968153999527,-9.602849117629331,-0.5021020388231775
1616000372.005943,-4.505424821400647,-9.601987894762866,-0.5020090567845953
1616000372.0611844,-4.5069924878299235,-9.610818835377508,-0.5044666891186457
1616000372.121162,-4.506839321659398,-9.612760190921481,-0.5042267368952814
